0.033593855798244476,-0.0298483707010746,0.04020296037197113,0.03156105428934097,0.055772021412849426,0.061960652470588684,0.052841559052467346,0.05550716817378998,0.06077080965042114,-0.0397556833922863,-0.040483925491571426,0.023317411541938782,-0.026157241314649582,-0.05757971853017807,0.045119836926460266,0.04930268973112106,0.029454581439495087,0.05374380946159363,-0.016908947378396988,0.019180670380592346,0.00843830406665802,0.011390380561351776,-0.053248804062604904,-0.03254247456789017,-0.06893032044172287,-0.0003676116466522217,-0.0431530624628067,-0.012123476713895798,-0.01900649443268776,-9.425729513168335e-05,0.06013818085193634,0.04073472321033478,-0.022126782685518265,-0.03486094996333122,0.030572548508644104,-0.02712107077240944,-0.0023749470710754395,0.025418967008590698,-0.006258852779865265,0.03652156889438629,0.05503679811954498,0.02673470228910446,0.030173107981681824,-0.044321462512016296,0.07008644938468933,0.010414950549602509,-0.03421416133642197,0.030236460268497467,0.07198067009449005,0.000703170895576477,-0.037050459533929825,0.020163707435131073,-0.019095640629529953,0.009206637740135193,-0.05157768726348877,0.020150236785411835,-0.0377323143184185,0.06130090355873108,-0.018897388130426407,-0.020715948194265366,0.021619796752929688,0.06348668038845062,0.06393170356750488,0.045643240213394165,-0.03646184876561165,0.06311768293380737,-0.060879211872816086,-0.04999165236949921,-0.026543091982603073,-0.05497954040765762,0.032278336584568024,0.01075078547000885,-0.030060850083827972,-0.04363814741373062,-0.03776416555047035,0.004065230488777161,-0.052636705338954926,0.04413088411092758,-0.027114138007164,0.03341284394264221,-0.034197092056274414,0.05250297486782074,0.04578271508216858,0.04720822721719742,0.0137108713388443,-0.03876175358891487,0.06767791509628296,-0.0626937597990036,-0.021407004445791245,-0.0036253854632377625,0.008334651589393616,0.06977659463882446,0.06402486562728882,-0.03073948621749878,0.028405271470546722,-0.03014266863465309,-0.04385153949260712,0.04866693168878555,0.018528655171394348,0.013907499611377716,-0.016249429434537888,0.0004239678382873535,0.012894600629806519,0.011213824152946472,0.03092985600233078,0.042333006858825684,0.04867854714393616,0.06534205377101898,0.035168737173080444,0.006995148956775665,0.004693470895290375,0.02507024258375168,0.05643954873085022,0.04937458038330078,-0.012467019259929657,-0.007923230528831482,0.0024647414684295654,-0.007719606161117554,-0.04075745493173599,0.027773745357990265,0.008597731590270996,0.04641300439834595,0.06470920145511627,-0.01761852204799652,0.027736634016036987,-0.06507354229688644,0.05935142934322357,-0.042144063860177994,-0.01504119485616684,0.018801681697368622,0.038841716945171356,0.0464223250746727,0.06490372121334076,-0.010989353060722351,-0.03617651388049126,0.0532713383436203,0.00787324458360672,0.05892722308635712,0.06011025607585907,0.04859151691198349,0.043793052434921265,0.029990889132022858,-0.042141105979681015,0.06236971914768219,-0.007763966917991638,0.0011902004480361938,0.059401050209999084,0.04221225529909134,0.004186950623989105,0.06255325675010681,-0.02182885631918907,0.05122058093547821,0.060734495520591736,-0.07094131410121918,-0.04696503281593323,-0.02892765775322914,-0.05482986569404602,0.026158355176448822,0.06747987866401672,0.06500507891178131,-0.04533781111240387,0.03853827714920044,-0.022504325956106186,0.038017354905605316,0.016856834292411804,-0.019878890365362167,0.03261181712150574,-0.014157924801111221,-0.020499076694250107,0.03012547641992569,0.028959333896636963,0.03701461851596832,0.04600593447685242,-0.012376118451356888,0.013379178941249847,0.038800157606601715,-0.003255583345890045,0.014164671301841736,-0.027741845697164536,0.001986682415008545,0.011780641973018646,-0.015990592539310455,0.05515410006046295,0.0664907693862915,-0.054200850427150726,0.019742563366889954,0.06921422481536865,0.05702903866767883,0.025016747415065765,-0.05311865359544754,0.03777781128883362,0.04230917990207672,0.020415954291820526,-0.03908086568117142,-0.01674681156873703,-0.021585039794445038,-0.029833056032657623,-0.034058306366205215,0.031867265701293945,0.007127590477466583,0.04959946870803833,-0.053261056542396545,0.07020846009254456,0.013547718524932861,-0.055970869958400726,-0.05588917434215546,0.03080561012029648,0.012400306761264801,-0.023191187530755997,0.05466838181018829,0.06230385601520538,0.004436783492565155,-0.020442966371774673,0.023387566208839417,0.02963501214981079,0.06590044498443604,-0.010190684348344803,-0.026560593396425247,-0.03616226837038994,0.05206311494112015,-0.06862664222717285,0.028568796813488007,0.03134594112634659,-0.06561239808797836,0.023374557495117188,-0.03984758257865906,0.04358900338411331,-0.06859815120697021,0.07104460895061493,0.03016267716884613,0.01641097664833069,-0.052341029047966,0.04657844454050064,-0.0574055016040802,0.05895830690860748,0.011727645993232727,-0.06425543129444122,-0.06462932378053665,-0.0089651420712471,-0.06262616068124771,-0.07191244512796402,0.06240169703960419,-0.05166347697377205,0.0016843676567077637,-0.06603608280420303,0.021209560334682465,-0.029012516140937805,-0.003463245928287506,-0.013028465211391449,-0.041738253086805344,-0.03433147445321083,0.02089652419090271,-0.02767229452729225,0.05668462812900543,0.013793855905532837,0.028996549546718597,-0.05893766134977341,0.0010237619280815125,0.0607384592294693,0.009829141199588776,0.008247151970863342,-0.04678501933813095,-0.009480178356170654,0.06293189525604248,0.04777800291776657,0.01953262835741043,-0.05650505796074867,-0.025227632373571396,0.032745666801929474,0.02106425166130066,0.025901228189468384,-0.06690139323472977,-0.04155004769563675,0.017994381487369537,0.048138439655303955,0.01780305802822113,-0.0536850169301033,-0.05254434049129486,-0.01900845393538475,0.03204286843538284,0.05516374111175537,-0.02671663463115692,-0.00981687381863594,-0.03070182353258133,0.0192214697599411,-0.05246768519282341,0.02833983302116394,0.005884081125259399,0.0376415029168129,0.055098116397857666,0.012763038277626038,-0.004542969167232513,0.0011837109923362732,-0.061392322182655334,0.01495564728975296,-0.015499591827392578,-0.0476422943174839,0.052438609302043915,0.028742671012878418,0.06950294971466064,0.031215913593769073,-0.05594339221715927,-0.04194245487451553,-0.030962001532316208,0.04390135407447815,-0.021866295486688614,0.045433856546878815,0.031360551714897156,0.03559929132461548,0.034035079181194305,0.013610586524009705,-0.0375896580517292,-0.020447026938199997,-0.048189129680395126,-0.062455128878355026,-0.05083863437175751,-0.05057661980390549,-0.04265514761209488,0.03137032687664032,0.032460592687129974,0.002994358539581299,0.06970444321632385,-0.02178576961159706,0.03371075540781021,-0.06518789380788803,-0.03269583731889725,-0.01881997659802437,-0.012280691415071487,-0.014206651598215103,0.058282822370529175,-0.04434496909379959,0.06605324149131775,-0.054963212460279465,-0.015465609729290009,-0.009649284183979034,-0.03458131104707718,0.018064528703689575,0.06895773112773895,0.02710842341184616,-0.04559967294335365,0.00712953507900238,0.04251575469970703,-0.02915605530142784,0.02868683636188507,-0.041742414236068726,-0.0133330337703228,0.003885045647621155,-0.062399327754974365,-0.05492651090025902,0.024601958692073822,-0.06968581676483154,-0.041039347648620605,-0.041387345641851425,0.0015429630875587463,-0.024644818156957626,0.04639861732721329,-0.02963096648454666,-0.045843593776226044,-0.020430337637662888,-0.03279033303260803,0.007623493671417236,-0.03212966024875641,0.03697122633457184,-0.061576638370752335,0.007925204932689667,0.05850084125995636,0.06787967681884766,0.0368582159280777,0.022871285676956177,0.01020120084285736,0.05178901553153992,0.054788246750831604,-0.0025219395756721497,-0.06682109087705612,-0.04349251091480255,-0.0018312260508537292,-0.0011395066976547241,-0.04051000997424126,0.040286995470523834,-0.06269119679927826,0.051010772585868835,0.04901691526174545,0.05013764649629593,-0.052722685039043427,-0.03894166648387909,-0.01462850347161293,0.010925926268100739,-0.056210003793239594,0.051671236753463745,0.01627378910779953,0.050764285027980804,0.024181552231311798,-0.07169808447360992,0.032314300537109375,-0.055951476097106934,-0.06594831496477127,-0.04992217570543289,-0.039948754012584686,0.07187439501285553,-0.03249744698405266,-6.232410669326782e-05,-0.05061701685190201,-0.059233542531728745,0.04766491800546646,0.05306452512741089,0.06503081321716309,0.06712961196899414,0.014705412089824677,0.041421107947826385,-0.006434030830860138,0.0025022923946380615,-0.04107360541820526,-0.036157723516225815,-0.0545155368745327,-0.06519923359155655,-0.04899435490369797,0.003613404929637909,0.06516119837760925,-0.039372753351926804,0.02382209151983261,-0.017718371003866196,0.07009387016296387,0.017460912466049194,-0.03887239098548889,0.06916150450706482,-0.04017297178506851,0.006485670804977417,0.03532693535089493,-0.033771853893995285,-0.013437062501907349,0.06131264567375183,0.04659576714038849,0.04847700893878937,0.004059135913848877,0.003832876682281494,0.06832429766654968,0.018298260867595673,0.06998279690742493,-0.024405457079410553,-0.03592156618833542,0.02164493501186371,-0.0024290233850479126,-0.0009476616978645325,-0.033094801008701324,0.006476238369941711,0.05276753753423691,-0.04176519811153412,0.04893893003463745,0.05519817769527435,-0.03411835432052612,-0.008774183690547943,-0.03124348074197769,0.01068025827407837,0.02453882247209549,0.028139084577560425,-0.000637546181678772,-0.055342890322208405,-0.04985756427049637,0.040701724588871,-0.05431570112705231,0.011457793414592743,-0.00022043287754058838,-0.030884381383657455,-0.029625046998262405,-0.04546879976987839,-0.04308922588825226,0.043305911123752594,0.02441246062517166,0.06798171997070312,-0.03320992738008499,-0.05252551659941673,-0.024795010685920715,-0.05107346922159195,0.03959232568740845,0.05972452461719513,0.0011275485157966614,-0.0012041032314300537,0.05079849809408188,0.012458831071853638,-0.0356525294482708,-0.04329018294811249,-0.06966178119182587,0.020161554217338562,-0.046954210847616196,0.02883954346179962,-0.05516698956489563,0.018136054277420044,-0.05577024072408676,0.027907595038414,0.019449181854724884,-0.07068526744842529,0.0228111669421196,0.04618902504444122,0.0058008357882499695,-0.05839116871356964,-0.03385661169886589,-0.011020101606845856,-0.02821897715330124,-0.03765703737735748,-0.060253314673900604,-0.06303185224533081,0.03844118118286133,-0.05928834527730942,-0.007950946688652039,-0.0307842418551445,0.05726179480552673,0.05900770425796509,-0.0718708336353302,-0.05404912307858467,-0.04512813314795494,0.008540920913219452,0.06530368328094482,-0.007008261978626251,-0.03135710954666138,0.06478197872638702,-0.039032239466905594,0.06226882338523865,0.049133241176605225,-0.04995452240109444,0.05408622324466705,-0.015958882868289948,0.01453254371881485,-0.05773923918604851,-0.06284324824810028,0.02101524919271469,-0.06873638182878494,0.0014814883470535278,-0.05527261644601822,0.0013921484351158142,-0.05622728168964386,-0.042704835534095764,-0.016428615897893906,0.01582253724336624,0.03433568775653839,-0.06571752578020096,0.015562444925308228,0.01192503422498703,0.02699914574623108,0.006273895502090454,-0.04460187628865242,0.019579395651817322,-0.02435380592942238,0.03505462408065796,0.02653849869966507,0.005978599190711975,0.047412022948265076,0.047430433332920074,-0.0639490857720375,0.013928651809692383,0.033255353569984436,0.06024250388145447,-0.04108671471476555,-0.0028617680072784424,0.011374466121196747,-0.04356766864657402,0.012110210955142975,-0.03410448879003525,0.02625526487827301,-0.03946184739470482,-0.040067702531814575,-0.03904813900589943,-0.04047848656773567,0.0002993941307067871,0.04267092049121857,0.05437563359737396,-0.0511382520198822,-0.04094378277659416,0.062030911445617676,-0.016228266060352325,-0.011735007166862488,0.06654821336269379,0.026350997388362885,0.06451883912086487,0.02129439264535904,0.07004372775554657,0.01956244558095932,
-0.04825296625494957,-0.07052034139633179,0.01607327163219452,0.05281168967485428,0.004084505140781403,0.06163010001182556,-0.06880983710289001,0.007154397666454315,-0.012491676956415176,-0.0015317648649215698,0.05744434893131256,-0.042489275336265564,-0.02783598005771637,-0.06654690951108932,0.03689999133348465,-0.019169729202985764,-0.02421828731894493,-0.016324501484632492,-0.06479869037866592,-0.06457540392875671,-0.030018214136362076,0.06572702527046204,0.034762270748615265,-0.03495635837316513,-0.0209275521337986,0.02075696736574173,-0.021968640387058258,0.040049150586128235,0.019392497837543488,-0.05671010911464691,0.05972643196582794,-0.04557393491268158,-0.04354015737771988,0.06915724277496338,-0.023414991796016693,-0.04305436834692955,0.05438396334648132,-0.01637539640069008,0.04907527565956116,-0.052415378391742706,-0.048478350043296814,0.033572979271411896,0.0004596337676048279,0.05434098839759827,-0.021275654435157776,-0.05676117539405823,-0.048634499311447144,-0.06710578501224518,0.026776723563671112,-0.03759751841425896,0.01844055950641632,0.012381382286548615,-0.015571996569633484,0.011608317494392395,0.061382412910461426,-0.05760373920202255,-0.05226029455661774,0.004236690700054169,0.06369006633758545,0.0161309614777565,-0.063979372382164,0.005671896040439606,0.038819774985313416,-0.06642796099185944,-0.01601659134030342,-0.05180887132883072,0.0019028037786483765,-0.058455660939216614,-0.0563688725233078,0.05731084942817688,-0.02290487289428711,0.021618664264678955,0.006817132234573364,0.04427611082792282,0.05557931959629059,-0.029539257287979126,-0.003284752368927002,0.010076619684696198,-0.011985603719949722,-0.043821945786476135,0.031407952308654785,-0.02880079299211502,-0.027231916785240173,-0.04090771824121475,0.014781758189201355,-0.04203805699944496,-0.044983066618442535,0.04582054913043976,0.03847067803144455,0.040518805384635925,-0.01538107544183731,-0.03692024201154709,0.015922456979751587,-0.055739305913448334,0.05216424912214279,-0.006986066699028015,-0.04515008628368378,-0.012378819286823273,-0.06617967039346695,0.03314569592475891,0.057888612151145935,-0.014384858310222626,-0.048511750996112823,0.0677092969417572,0.0025712698698043823,-0.012773104012012482,0.02108536660671234,0.012664943933486938,0.04814750701189041,-0.03650610148906708,0.031453996896743774,-0.02275400608778,0.035663627088069916,0.009314514696598053,0.06846916675567627,-0.05403880029916763,-0.024043403565883636,0.02805265784263611,0.06905058026313782,-0.032739195972681046,-0.032276447862386703,-0.003500916063785553,0.043030932545661926,0.05742181837558746,0.021641992032527924,0.05569368600845337,-0.027500059455633163,-0.0649091899394989,0.035802774131298065,-0.02114495262503624,0.035157687962055206,-0.06380072236061096,0.06472297012805939,-0.06828346103429794,0.049568258225917816,0.030037395656108856,-0.001732267439365387,0.03755171597003937,0.06917484104633331,-0.05907754972577095,-0.00128927081823349,0.06937107443809509,0.06826874613761902,-0.02634122595191002,-0.06418832391500473,-0.019670195877552032,-0.015568949282169342,-0.06963935494422913,0.013401500880718231,0.0619928240776062,-0.05991023778915405,-0.07168280333280563,-0.05429171770811081,-0.013515952974557877,-0.06552496552467346,-0.001618809998035431,0.018004223704338074,0.061174407601356506,-0.011176574975252151,-0.03904958441853523,0.07062099874019623,-0.01493930071592331,-0.04253234341740608,0.011069588363170624,0.013512648642063141,0.0002991333603858948,-0.05602278187870979,0.05243464559316635,-0.011374551802873611,0.036979980766773224,-0.06815549731254578,-0.037285707890987396,0.016962945461273193,-0.07148169726133347,-0.024158839136362076,-0.011230207979679108,0.0005525276064872742,0.0026565417647361755,-0.06832592934370041,-0.027741309255361557,0.06805717945098877,0.00043220818042755127,0.020810306072235107,0.008444823324680328,0.05879297852516174,-0.013396266847848892,0.02846599370241165,-0.058182112872600555,-0.02403128892183304,-0.020854473114013672,-0.010426480323076248,-0.028844155371189117,-0.03512878343462944,-0.006758473813533783,0.008898243308067322,-0.012408792972564697,-0.033014290034770966,0.01258770376443863,0.046893008053302765,-0.03834446519613266,-0.0528176948428154,-0.024451449513435364,0.0013048425316810608,0.002376735210418701,-0.009205549955368042,0.06145523488521576,0.03731626272201538,0.04649106413125992,-0.0002631545066833496,-0.016596704721450806,0.054192543029785156,0.020547427237033844,0.06581836938858032,0.0721614807844162,0.06841512024402618,0.04951651394367218,0.05500726401805878,0.04629422724246979,0.019700787961483,0.05008580535650253,0.04612191766500473,-0.020947769284248352,0.018845871090888977,0.06442463397979736,-0.06112605333328247,0.01540994644165039,-0.06100929528474808,-0.06374144554138184,0.04753363877534866,-0.05963481217622757,-0.02030385285615921,-0.03517286479473114,0.029617629945278168,-0.038736529648303986,0.04159507900476456,-0.016007162630558014,0.07012571394443512,-0.039508890360593796,0.04599648714065552,-0.04396289959549904,0.03376113623380661,0.06419779360294342,-0.00017277151346206665,0.03798197954893112,0.0006794631481170654,0.0074894726276397705,-0.05861760675907135,-0.0019826218485832214,-0.07004231214523315,-0.009579531848430634,0.04048968851566315,0.0315108522772789,0.012975037097930908,-0.07077160477638245,0.05907353758811951,0.02787536382675171,0.0347842276096344,0.008861936628818512,0.003740474581718445,-0.02882818505167961,-0.014610949903726578,-0.02974444255232811,0.01623595505952835,-0.032227735966444016,0.03619943559169769,0.05868007242679596,0.010336093604564667,0.024279333651065826,0.011260509490966797,0.06471425294876099,-0.005556218326091766,-0.02798626199364662,-0.04287397861480713,-0.013952359557151794,-0.03896990045905113,-0.044056881219148636,-0.016400467604398727,0.042926594614982605,-0.013540558516979218,-0.030087504535913467,-0.0594797320663929,0.03508806973695755,0.04400916397571564,-0.06519300490617752,0.05265389382839203,-0.05027058720588684,-0.027357317507267,0.04062539339065552,-0.06577245146036148,-0.05131281167268753,-0.00709417462348938,-0.04300111532211304,-0.0369262658059597,0.06492844223976135,0.042406775057315826,-0.06232067942619324,-0.017559435218572617,0.053025200963020325,-0.0595775842666626,-0.007188446819782257,-0.03253345936536789,0.0677465945482254,-0.024937842041254044,0.030528299510478973,-0.021153729408979416,0.05437523126602173,-0.062144484370946884,-0.0035353973507881165,0.03043830394744873,0.06478777527809143,-0.005618259310722351,-0.008389554917812347,-0.05535433068871498,-0.04007828235626221,-0.004340328276157379,-0.015892982482910156,0.06809107959270477,-0.06126659736037254,-0.07045919448137283,0.027497582137584686,-0.058556005358695984,0.06254878640174866,-0.06862213462591171,-0.0679054856300354,-0.044647522270679474,0.028033234179019928,0.012556508183479309,-0.03548333793878555,0.042673178017139435,0.03139496594667435,0.005132302641868591,-0.06181477755308151,0.06326842308044434,-0.02712850645184517,0.03767974674701691,-0.052707284688949585,-0.06038236245512962,-0.008470267057418823,-0.06423269957304001,-0.05692141875624657,-0.020829766988754272,0.07126954197883606,0.018364042043685913,0.06912410259246826,-0.052188582718372345,0.03860951215028763,-0.06662382185459137,-0.020072463899850845,0.00478053092956543,-0.0486413836479187,-0.02340463176369667,0.05583736300468445,0.024036139249801636,-0.014155153185129166,0.03256775438785553,0.06550770998001099,0.05459338426589966,-0.009848587214946747,-0.009175904095172882,0.00949317216873169,0.00041671842336654663,0.05159872770309448,-0.048969872295856476,-0.008512750267982483,0.03331330418586731,0.05904597043991089,0.001528136432170868,-0.06605207175016403,0.0007360205054283142,-0.04507133364677429,0.005312055349349976,0.03609412908554077,-0.017955802381038666,0.03902324289083481,-0.00895100086927414,-0.024260390549898148,-0.013237573206424713,-0.06026257202029228,0.01437116414308548,0.005367755889892578,0.02792218327522278,-0.07065637409687042,0.0010372325778007507,0.04341110587120056,-0.021640721708536148,-0.021056562662124634,-0.06700056791305542,-0.05380360782146454,0.0005359649658203125,-0.03711013123393059,0.03902754187583923,0.021021030843257904,0.034701235592365265,0.05576378107070923,0.0505845844745636,0.02648911625146866,-0.07106325775384903,0.03426404297351837,0.03402093052864075,-0.0034785643219947815,0.02683451771736145,0.02077954262495041,-0.02850395068526268,0.047572918236255646,-0.008454062044620514,0.023323364555835724,-0.006843976676464081,-0.008316688239574432,-0.059995681047439575,0.036173298954963684,-0.0696115493774414,-0.02944973111152649,0.03626909852027893,-0.029651839286088943,-0.04579862952232361,0.04876580089330673,0.038475386798381805,-0.05299827829003334,-0.004988953471183777,0.05592651665210724,-0.04357864707708359,0.0017867088317871094,0.001153498888015747,0.051073573529720306,-0.06380338221788406,0.03871046006679535,-0.0497671440243721,-0.024446547031402588,-0.010680843144655228,0.06697738170623779,0.06129264831542969,-0.027364078909158707,0.0204644575715065,0.008341684937477112,0.043521448969841,0.061357155442237854,0.02696094661951065,-0.060741785913705826,0.05694966018199921,-0.015312284231185913,-0.06253492832183838,-0.03951432928442955,0.05759912729263306,0.021504580974578857,0.054273515939712524,-0.0025514140725135803,0.029122397303581238,0.0025934800505638123,-0.022671468555927277,0.05366373062133789,0.023422665894031525,-0.009180620312690735,0.03733828663825989,-0.06368982046842575,-0.05240921676158905,0.02258182317018509,-0.01211511343717575,0.028883539140224457,0.07131591439247131,0.0030813515186309814,0.004526123404502869,0.03200262784957886,-0.05186358839273453,-0.06293812394142151,0.024693697690963745,-0.02416333183646202,0.0022986531257629395,-0.05663616955280304,-0.037636131048202515,-0.04037502408027649,-0.05486080050468445,-0.05444223806262016,-0.02143741026520729,0.045796945691108704,-0.012514784932136536,0.05816221237182617,0.07201798260211945,0.018168970942497253,-0.05630362406373024,-0.049384232610464096,-0.005370110273361206,0.018527865409851074,-0.0014847218990325928,-0.006756670773029327,0.03816450387239456,-0.021858088672161102,0.07140174508094788,-0.0017081275582313538,-0.06686892360448837,0.014035053551197052,0.03173325955867767,0.05563856661319733,0.0603061318397522,0.005152225494384766,-0.036781422793865204,-0.06922806054353714,-0.06297969818115234,0.017210371792316437,-0.0363200306892395,-0.03953488916158676,0.00856015831232071,-0.019733961671590805,-0.05280178040266037,0.00733029842376709,-0.0658458024263382,-0.05372941121459007,-0.029772095382213593,0.04225267469882965,-0.06370018422603607,0.0519489124417305,-0.040852140635252,-0.05644948035478592,0.035474181175231934,0.012436062097549438,0.005243778228759766,-0.013868652284145355,-0.05001384764909744,0.013763435184955597,-0.0010312125086784363,-0.0006600022315979004,0.051034338772296906,0.026849471032619476,-0.0695742517709732,-0.027122467756271362,0.00315103679895401,0.0039672404527664185,0.023633182048797607,-0.002445511519908905,-0.04365614429116249,0.04476258158683777,0.029976211488246918,-0.05491826683282852,-0.034496139734983444,-0.06163467466831207,-0.02839941903948784,-0.06464899331331253,0.04785314202308655,0.05848076939582825,0.02276802808046341,0.05909089744091034,0.042434148490428925,0.0329497829079628,-0.025887634605169296,0.005234710872173309,0.020915038883686066,0.04118702560663223,-0.035343967378139496,-0.008572012186050415,-0.037027422338724136,0.04350113123655319,0.031370289623737335,0.07029308378696442,0.05662837624549866,-0.025046687573194504,0.0636979341506958,-0.043789856135845184,0.06746275722980499,0.05516496300697327,0.009220689535140991,0.06914803385734558,-0.050946347415447235,-0.07108942419290543,-0.02702666074037552,0.03806069493293762,0.058576345443725586,0.05511309206485748,0.03303452581167221,0.060185447335243225,0.04262212663888931,0.046561338007450104,0.010082058608531952,0.03206544369459152,0.03034663200378418,0.06539928913116455,-0.042595990002155304,0.011601760983467102,
-0.03544094040989876,0.0423443466424942,0.02095506340265274,0.07127569615840912,0.0036575570702552795,-0.00811149924993515,-0.03299686312675476,-0.019515149295330048,0.021423764526844025,-0.04706861823797226,0.006060086190700531,-0.02226923406124115,-0.059713155031204224,-0.04468725621700287,-0.06233461573719978,0.05302083492279053,-0.019276872277259827,0.041796356439590454,-0.07205028086900711,0.06794045865535736,0.029746614396572113,0.06311605870723724,0.041233986616134644,0.024722881615161896,0.057167038321495056,0.06260979175567627,-0.03567914664745331,-0.046200983226299286,-0.005552306771278381,-0.0010235533118247986,0.002340875566005707,-0.010913662612438202,-0.046563126146793365,0.0449933186173439,-0.05206615477800369,0.01080033928155899,-0.020498216152191162,0.06857259571552277,0.008676126599311829,0.06250041723251343,-0.0238911435008049,0.07056446373462677,0.072074756026268,0.02857287973165512,0.023680105805397034,-0.042328789830207825,0.042531102895736694,-0.042171575129032135,0.0338440015912056,-0.03269704058766365,0.024892620742321014,-0.07124155014753342,-0.007434740662574768,-0.004014059901237488,0.003908686339855194,0.01793403923511505,0.011198081076145172,-0.025121916085481644,0.0533352792263031,-0.04388531669974327,0.0011209473013877869,0.03461214154958725,-0.01264742761850357,-0.003985270857810974,-0.04519195109605789,0.026758015155792236,0.052547164261341095,0.032922133803367615,0.06571197509765625,0.05009446293115616,0.009246744215488434,-0.040303222835063934,-0.02775214985013008,-0.04749118536710739,-0.05533984303474426,-0.018588565289974213,0.026572756469249725,-0.046928197145462036,-0.05841711908578873,0.03233591467142105,-0.009361200034618378,0.048918046057224274,-0.0608036071062088,0.01893114298582077,-0.04638602212071419,-0.06357195973396301,-0.046135805547237396,0.000666297972202301,-0.016564063727855682,-0.04313208907842636,0.05694565176963806,-0.0308704636991024,-0.01958312839269638,0.04938843101263046,0.0021979957818984985,0.01094675064086914,-0.022802717983722687,-0.013127226382493973,-0.018084917217493057,-0.038096968084573746,0.0024811401963233948,0.0170433446764946,-0.027442041784524918,0.057794421911239624,-0.04176781326532364,-0.03679286316037178,0.0408380851149559,0.000935576856136322,0.006219640374183655,-0.03996850922703743,-0.03606795892119408,-0.06561265140771866,0.023227408528327942,0.05944932997226715,-0.01982596516609192,0.023911133408546448,-0.01854778826236725,-0.06663371622562408,0.016532868146896362,0.020513132214546204,-0.03246867656707764,-0.03424268960952759,-0.0005927905440330505,-0.0347084142267704,0.0346602201461792,0.023531973361968994,0.055222660303115845,-0.011134833097457886,0.0479167178273201,-0.05459047108888626,-0.0561644583940506,-0.04265905171632767,-0.05961347743868828,-0.031245701014995575,-0.04139271378517151,-0.04005109891295433,0.0003004223108291626,0.0258457213640213,-0.0684971809387207,-0.02401406317949295,-0.053947143256664276,-0.06376775354146957,-0.02837054803967476,0.059575051069259644,-0.0589444600045681,-0.0023145154118537903,0.045428209006786346,0.0518404096364975,-0.010354507714509964,-0.0376206636428833,-0.0634755864739418,-0.02656453102827072,0.02046925574541092,-0.06654952466487885,-0.04501362144947052,-0.00887531042098999,-0.054513268172740936,-0.05187908932566643,-0.04597993195056915,-0.03776665776968002,-0.03684009611606598,0.005341857671737671,-0.03128477558493614,0.018371663987636566,-0.06991139054298401,0.056822970509529114,0.0451166033744812,-0.021997805684804916,-0.06656458228826523,-0.014856521040201187,0.05275685340166092,-0.010491624474525452,-0.05364792048931122,-0.023982111364603043,0.01175081729888916,0.07004189491271973,-0.053484946489334106,-0.01083521917462349,0.02651028335094452,-0.03139379620552063,0.022194042801856995,0.015738174319267273,-0.02317986637353897,-0.02968497946858406,0.020977087318897247,0.02834097295999527,0.06169888377189636,-0.0690193921327591,0.05916133522987366,-0.05501747876405716,0.0029926225543022156,-0.05263584107160568,-0.04351639375090599,0.05427888035774231,-0.0019050538539886475,-0.02360718697309494,0.010668471455574036,0.015483982861042023,0.06422826647758484,0.015863507986068726,0.019065700471401215,0.06730534136295319,-0.05260860547423363,0.0013456270098686218,-0.011384323239326477,0.0017882436513900757,0.06402340531349182,0.023752234876155853,-0.021859120577573776,0.0452023446559906,0.023860551416873932,0.05749450623989105,-0.04114494472742081,0.04969374090433121,0.05869853496551514,-0.0030937939882278442,0.05544888973236084,0.017323657870292664,0.024898819625377655,-0.06160552799701691,-0.018117576837539673,0.03364785015583038,-0.027958713471889496,-0.04747067764401436,-0.04795030504465103,-0.006469033658504486,0.05373820662498474,0.05545175075531006,0.05627410113811493,0.04109886288642883,-0.056042466312646866,-0.07081099599599838,-0.0171816349029541,-0.06668049842119217,-0.041361622512340546,0.035954467952251434,-0.0434415265917778,0.05920855700969696,-0.015877101570367813,-0.026721470057964325,-0.0182730033993721,-0.003668949007987976,0.07083489000797272,0.047752656042575836,-0.02784888446331024,-0.06639409810304642,0.01937706768512726,-0.020899932831525803,0.06393356621265411,0.03918945789337158,-0.04985173046588898,-0.058498382568359375,-0.052937936037778854,-0.045602306723594666,-0.028094574809074402,0.03157917410135269,-0.0017778649926185608,0.06443531811237335,-0.03536888211965561,-0.06154203787446022,-0.05830804631114006,-0.005735799670219421,0.057012513279914856,0.05072148144245148,0.01124449074268341,-0.03026583045721054,-0.02795867994427681,-0.044925957918167114,0.018894992768764496,-0.05912281945347786,0.06192050874233246,-0.033591169863939285,0.021606236696243286,0.07009901106357574,0.05771447718143463,-0.03611261025071144,0.012707114219665527,-0.06572426855564117,-0.03475920855998993,-0.04024842008948326,0.031564466655254364,0.03619428724050522,-0.05380333214998245,0.022510454058647156,0.015789642930030823,-0.051975857466459274,0.06040675938129425,0.06632252037525177,0.05195094645023346,0.07129386067390442,0.01445334404706955,0.06683871150016785,-0.0633050873875618,-0.04042315110564232,0.0482863113284111,-0.06461744010448456,-0.06730534881353378,-0.017105910927057266,-0.051043979823589325,0.037902913987636566,0.028637267649173737,-0.021364077925682068,0.04305765777826309,-0.010373380035161972,-0.0604400560259819,0.00519193708896637,-0.0011501088738441467,0.016134589910507202,-0.03718898817896843,-0.004250369966030121,0.033749520778656006,-0.007411099970340729,-0.024329647421836853,-0.01323387399315834,0.03655896335840225,0.06978225708007812,-0.0007468760013580322,0.06152217090129852,-0.053955622017383575,-0.03574527055025101,-0.06365448236465454,0.06787142157554626,0.0008039176464080811,0.035238660871982574,0.020494207739830017,0.004570119082927704,0.053210124373435974,-0.030991490930318832,-0.028902705758810043,-0.005477458238601685,-0.06047326326370239,0.035012781620025635,0.06211467087268829,-0.06400419771671295,-0.04178410768508911,0.045415669679641724,0.038079507648944855,-0.02241724357008934,-0.061154257506132126,-0.02413211762905121,0.012938834726810455,0.022638343274593353,-0.0635717362165451,-0.040035370737314224,0.02647998183965683,0.016378283500671387,0.03050646185874939,0.06597588956356049,0.0607898086309433,0.021872125566005707,0.03416562080383301,-0.06754370778799057,0.017007216811180115,-0.038424648344516754,-0.015905525535345078,-0.03594212979078293,-0.07212606072425842,0.050765834748744965,0.017235197126865387,0.06641961634159088,-0.004714444279670715,-0.005494855344295502,-0.02180739864706993,-0.059550054371356964,-0.04446444660425186,-0.034015100449323654,-0.06100882962346077,-0.038420140743255615,0.059052079916000366,-0.03555544838309288,-0.034048791974782944,0.059639230370521545,-0.06684638559818268,0.06442885100841522,-0.057268042117357254,0.0054227933287620544,-0.037036266177892685,0.01058940589427948,-0.06227748841047287,-0.06385106593370438,0.061173900961875916,0.07053600251674652,-0.040679872035980225,-0.05259158834815025,-0.06664861738681793,0.040955156087875366,-0.04782731458544731,0.024265825748443604,-0.038215212523937225,-0.0156865231692791,0.007320336997509003,0.0020322129130363464,0.04640296846628189,0.022336788475513458,-0.009087786078453064,-0.0181417353451252,-0.022365350276231766,0.04225356876850128,-0.008420489728450775,-0.03338347002863884,-0.055522575974464417,-0.047354619950056076,-0.008218884468078613,0.07163527607917786,0.04570262134075165,-0.06944718211889267,-0.07061311602592468,-0.053858496248722076,-0.0005918294191360474,0.06049588322639465,-0.04709862172603607,-0.05531013011932373,0.05577369034290314,0.030289456248283386,0.06677186489105225,0.005120821297168732,0.003969907760620117,0.04872159659862518,-0.014836370944976807,-0.005247615277767181,0.015673786401748657,-0.004182495176792145,0.019535504281520844,0.0636848509311676,0.047061629593372345,0.043775781989097595,0.0006226301193237305,0.028795994818210602,-0.060418736189603806,0.04739551991224289,0.03688187152147293,0.032968953251838684,0.00617266446352005,0.06547078490257263,-0.014811303466558456,0.026542939245700836,-0.00943554937839508,0.01015084981918335,0.009517207741737366,-0.06409861147403717,0.05701683461666107,-0.06426871567964554,-0.000561736524105072,0.03884558379650116,0.05940636992454529,-0.06960974633693695,0.010197877883911133,0.003562547266483307,0.05422106385231018,-0.020630430430173874,-0.06512216478586197,-0.009437769651412964,-0.04062441363930702,0.014470458030700684,-0.0652829259634018,0.03220590204000473,0.04927971959114075,-0.05943268910050392,0.053254589438438416,0.03803922235965729,0.029080256819725037,0.016807951033115387,0.05490964651107788,0.03420831263065338,-0.002712361514568329,-0.03890257328748703,0.0029021278023719788,-0.025176838040351868,0.01221226155757904,0.0037037059664726257,-0.05200531333684921,0.02041669189929962,-0.00729195773601532,-0.050278190523386,-0.03357594087719917,-0.061102189123630524,0.05405811965465546,-0.033664312213659286,0.019611775875091553,0.029429666697978973,-0.031060989946126938,0.05617682635784149,0.041489049792289734,-0.046981845051050186,-0.05523524433374405,-0.0548732727766037,-0.009773705154657364,-0.06684834510087967,-0.0021985098719596863,0.07204009592533112,0.010993324220180511,0.002584308385848999,-0.0020335540175437927,0.03982168436050415,-0.001640215516090393,0.016219332814216614,0.044416800141334534,0.019000954926013947,0.0650257021188736,0.06870301067829132,-0.057590436190366745,0.04448600858449936,0.03178998827934265,0.05830115079879761,0.027346253395080566,0.02055608481168747,0.04344151169061661,0.017475076019763947,-0.0017010197043418884,-0.05182544142007828,0.0666574090719223,-0.015712779015302658,-0.06957103312015533,-0.028896529227495193,0.022373318672180176,-0.020671848207712173,-0.06333795189857483,-0.013381574302911758,0.05566248297691345,0.07106243073940277,0.04187767207622528,-0.06874720752239227,0.044932447373867035,-0.04608117789030075,0.04727482050657272,-0.06491677463054657,-0.05949606001377106,-0.04899681359529495,0.046781428158283234,0.04375843703746796,0.06768549978733063,0.04301689565181732,-0.013679362833499908,0.0047603026032447815,-0.022388681769371033,0.021935276687145233,0.008001089096069336,0.0053761303424835205,0.049651794135570526,-0.02035215124487877,0.061323925852775574,0.0032419562339782715,-0.05065227299928665,0.0624023973941803,0.030477747321128845,0.007278747856616974,-0.038519952446222305,0.06389226019382477,0.06763654947280884,-0.031415749341249466,-0.03140895441174507,-0.012068897485733032,0.06139165163040161,-0.03938860073685646,0.037928588688373566,0.04761667549610138,0.003966346383094788,-0.03985936567187309,-0.03384004160761833,-0.02705691009759903,-0.06963104754686356,0.03414987772703171,-0.04638054966926575,-0.014155842363834381,0.06302732229232788,0.011283889412879944,-0.0005012229084968567,-0.04797922819852829,-0.022270094603300095,-0.05929598584771156,-0.05257090553641319,-0.007162310183048248,-0.06306067109107971,0.031021758913993835,-0.009773481637239456,-0.007417358458042145,
0.07122272253036499,-0.0692925825715065,0.01671823114156723,0.037480950355529785,0.008562050759792328,0.04040271043777466,0.06509216129779816,-0.04183756560087204,-0.059744760394096375,0.0419018492102623,-0.039151377975940704,-0.06449040025472641,-0.04646215960383415,-0.053040072321891785,-0.01905444636940956,-0.02814696729183197,-0.042035095393657684,-0.02996322140097618,0.039064399898052216,0.02356177568435669,-0.030962862074375153,0.03311845660209656,0.0006792917847633362,0.029497183859348297,0.03583866357803345,0.05725690722465515,0.021135196089744568,-0.04997602850198746,-0.01237042248249054,-0.02690960466861725,0.028232842683792114,-0.05124644562602043,0.06525866687297821,-0.05757211148738861,0.030626662075519562,-0.027634475380182266,0.007744587957859039,0.016695335507392883,-0.04684247076511383,-0.008632630109786987,-0.017751649022102356,0.020657256245613098,0.042150720953941345,-0.0385981909930706,-0.06940815597772598,0.04555736482143402,0.003517434000968933,0.05593255162239075,0.06727747619152069,0.05915059149265289,-0.03645145520567894,0.022599168121814728,-0.06578705459833145,-0.06676585972309113,-0.027258291840553284,0.044874198734760284,0.037148624658584595,0.009933635592460632,0.04221751540899277,0.05438898503780365,0.04233940690755844,-0.071050263941288,0.043873630464076996,-0.01642150804400444,-0.01068507507443428,-0.06052219867706299,0.02418868988752365,0.05315254628658295,-0.043115898966789246,-0.0640169307589531,-0.03529762849211693,0.005070947110652924,0.03331176936626434,-0.06403271108865738,-0.05436728894710541,0.05398277938365936,0.0500512421131134,0.0279923677444458,0.05400930345058441,0.043662287294864655,0.015433073043823242,0.06955878436565399,-0.054604630917310715,-0.02681693062186241,0.026162125170230865,-0.00743267685174942,-0.07095301151275635,0.03696924448013306,0.04076272249221802,-0.03633119910955429,0.06835365295410156,-0.03389369323849678,-0.0330461747944355,-0.0675908550620079,-0.03551233187317848,-0.06937575340270996,-0.06268077343702316,-0.040714144706726074,0.04396916180849075,-0.0457436740398407,0.07157209515571594,-0.017482023686170578,-0.030650530010461807,-0.032959867268800735,-0.03345632180571556,0.04804273694753647,-0.023937150835990906,0.021333500742912292,-0.006599694490432739,-0.015372384339571,-0.028626546263694763,-0.03467592969536781,0.05362968146800995,0.020277060568332672,0.02278009057044983,0.031724996864795685,0.02229110151529312,0.028658859431743622,0.06839802861213684,-0.013015780597925186,-0.0029378682374954224,0.033301807940006256,0.04045841097831726,-0.046967633068561554,-0.06811076402664185,0.05850675702095032,0.005306564271450043,0.04474770277738571,0.046911969780921936,0.056904956698417664,-0.03883779048919678,-0.019454289227724075,-0.004872329533100128,0.022236749529838562,-0.05214143544435501,0.06918062269687653,0.03402945399284363,-0.018149424344301224,0.002187758684158325,-0.05833268538117409,0.045743294060230255,0.03638429939746857,0.03696095198392868,0.05586886405944824,0.036927156150341034,0.014764122664928436,-0.033387720584869385,0.05284738540649414,0.0615982860326767,-0.051544204354286194,0.034042082726955414,-0.05071074143052101,0.03269953280687332,-0.001876339316368103,-0.05591016635298729,-0.05406029149889946,-0.04950737953186035,-0.021494191139936447,0.060248926281929016,0.04889235645532608,-0.07169397175312042,-0.048022571951150894,0.06284256279468536,0.06324666738510132,-0.06542584300041199,0.011955901980400085,-0.06764460355043411,-0.02729089930653572,0.07134401798248291,0.06162714958190918,-0.058929696679115295,-0.051814015954732895,-0.032842159271240234,-0.06980715692043304,0.017630718648433685,0.02173151820898056,0.06908324360847473,-0.030412189662456512,-0.018131840974092484,-0.05061431974172592,-0.061939433217048645,0.04390791058540344,-0.059295881539583206,-0.005420215427875519,0.04687684774398804,-0.006744742393493652,0.02185213565826416,0.060107529163360596,0.0705871433019638,0.026427090167999268,0.06595149636268616,-0.024451710283756256,-0.036662355065345764,0.0019193515181541443,0.07030509412288666,0.026735857129096985,0.0008557438850402832,-0.019912321120500565,-0.018877461552619934,-0.006727039813995361,0.004641145467758179,-0.034050941467285156,0.011075176298618317,-0.05692792311310768,0.05167481303215027,-0.013919942080974579,0.01853223145008087,-0.05857061594724655,0.019488371908664703,0.05040118098258972,-0.010871369391679764,0.03809647262096405,-0.0029560551047325134,0.06861405074596405,-0.05917142704129219,-0.04341272637248039,0.013962216675281525,0.02418109029531479,0.05908039212226868,0.019311748445034027,0.06326417624950409,-0.02230168506503105,0.04753059148788452,0.023667111992836,-0.019477777183055878,-0.0454179048538208,0.03384105861186981,0.04883452504873276,-0.037322647869586945,-0.007996663451194763,-0.0491691529750824,0.0022491514682769775,0.04781270772218704,0.06987226009368896,0.01951688528060913,0.032041773200035095,0.05888925492763519,0.04592815786600113,0.0323282927274704,0.018711023032665253,-0.07104164361953735,-0.015413835644721985,0.043192245066165924,0.04269487410783768,0.0405028834939003,-0.06738334149122238,0.022963114082813263,0.06768326461315155,-0.012992192059755325,-0.030104726552963257,-0.006139032542705536,0.04893377423286438,-0.012321867048740387,0.052895620465278625,0.004308097064495087,0.00957690179347992,-0.03556840494275093,0.04989425092935562,0.006333529949188232,-0.031029965728521347,0.0035122036933898926,0.039450354874134064,0.038837581872940063,-0.00906306505203247,0.020747020840644836,-0.06260578334331512,-0.00048103928565979004,0.021411895751953125,0.0010797008872032166,0.07143367826938629,0.017879337072372437,-0.01825321465730667,0.05559858679771423,-0.05170626938343048,0.04275716096162796,-0.019244663417339325,-0.02930285781621933,0.038971997797489166,-0.06141703203320503,0.010971598327159882,-0.0075575560331344604,0.05323322117328644,0.018516644835472107,0.04871750622987747,-0.007034584879875183,-0.023483160883188248,-0.044578924775123596,0.03913647681474686,0.05180811136960983,-0.008574888110160828,0.024150945246219635,0.010722771286964417,0.060281068086624146,0.008746981620788574,0.005811244249343872,0.004008911550045013,0.031267620623111725,0.0076163336634635925,-0.06910141557455063,-0.06700926274061203,0.06991297006607056,0.06732632219791412,-0.029111281037330627,0.04379205405712128,0.05956587195396423,-0.06542854756116867,-0.05157124996185303,0.0279892235994339,-0.0311741903424263,0.038781046867370605,-0.01063920184969902,0.004954718053340912,-0.033129625022411346,-0.05825291574001312,0.03845488280057907,0.03272217512130737,-0.05899640545248985,0.003016263246536255,-0.023941077291965485,0.030384384095668793,0.017516009509563446,-0.00016411393880844116,-0.0345659963786602,-0.03245971351861954,0.03858437389135361,-0.024698294699192047,0.051525309681892395,-0.033636439591646194,0.06093631684780121,0.021103210747241974,0.062421590089797974,0.06619024276733398,0.004703618586063385,-0.020245783030986786,0.0240786075592041,-0.01979423686861992,-0.0030368193984031677,0.013722158968448639,0.02470649778842926,0.005697116255760193,0.04313718527555466,-0.005207940936088562,0.03693273663520813,0.017039254307746887,0.05179914832115173,-0.017515145242214203,0.05035316199064255,-0.011292185634374619,0.0052148401737213135,-0.07060563564300537,0.036629125475883484,-0.04146205633878708,-0.038758572190999985,-0.061417341232299805,-0.008296467363834381,-0.05412230268120766,-0.04145956039428711,-0.05680222809314728,0.03341652452945709,-0.07008934020996094,-0.004742041230201721,-0.021269630640745163,-0.029490426182746887,0.0006081387400627136,0.05520310997962952,0.07042895257472992,-0.04443127661943436,0.03984051197767258,-0.05667724460363388,0.04718276113271713,0.0328378900885582,0.012149080634117126,-0.06773173809051514,0.030472390353679657,-0.06471819430589676,0.06265369057655334,-0.0472724586725235,0.026144199073314667,-0.006858803331851959,-0.034220680594444275,-0.03833804652094841,0.018454596400260925,0.07213360071182251,-0.005520030856132507,-0.04293562471866608,0.03153808414936066,-0.02403390407562256,0.02627338469028473,0.05309085547924042,0.025363460183143616,-0.06803611665964127,-0.036987122148275375,0.02664053440093994,-0.04389328509569168,0.06345809996128082,0.018237903714179993,0.0208723321557045,0.04147903621196747,-0.04057967662811279,0.02849503606557846,0.06944790482521057,-0.06545697152614594,-0.024522874504327774,0.04153449088335037,-0.02406943589448929,-0.03603962063789368,-0.011173650622367859,-0.017946630716323853,0.01590137928724289,0.01174856722354889,-0.010508675128221512,-0.0640481635928154,0.06810905039310455,0.025199569761753082,0.04452384263277054,0.04241212457418442,0.06035129725933075,0.062318772077560425,0.061410143971443176,0.0588591992855072,0.012739606201648712,-0.050018031150102615,0.04945731163024902,-0.06657713651657104,0.060889437794685364,-0.003217540681362152,0.0279693603515625,0.0334349051117897,0.019413046538829803,-0.014105737209320068,-0.04089035466313362,-0.03878443315625191,0.011749550700187683,0.014283068478107452,0.012513667345046997,-0.06134435161948204,0.001061461865901947,0.0585656464099884,-0.06499823182821274,0.03975273668766022,-0.014833826571702957,0.027728989720344543,-0.03070533275604248,-0.05059397965669632,-0.0008138418197631836,-0.012838263064622879,-0.02851736918091774,0.03507838398218155,-0.03662191703915596,0.008221447467803955,-0.011131733655929565,0.05522356927394867,0.004006296396255493,-0.018915675580501556,0.06353294849395752,-0.04577149450778961,0.04608883708715439,-0.04501952603459358,0.06381560862064362,0.020271025598049164,0.02970968931913376,-0.06948652863502502,-0.02192562445998192,-0.0704629048705101,0.024938911199569702,0.011620841920375824,0.02468554675579071,-0.03216959536075592,0.019232720136642456,-0.04613161087036133,-0.03529122844338417,0.03090807795524597,0.02567112445831299,-0.05933544039726257,0.021413713693618774,-0.02687617391347885,0.020455680787563324,0.0676596611738205,-0.00854838639497757,0.009567603468894958,0.02665857970714569,0.011360719799995422,-0.023507028818130493,-0.017239760607481003,-0.03664629906415939,-0.056187670677900314,-0.048314787447452545,0.03209495544433594,-0.07116249948740005,0.05890965461730957,-0.07048261165618896,0.05988031625747681,-0.016395822167396545,-0.038996484130620956,0.03262105584144592,0.035996466875076294,-0.027797233313322067,-0.04505689814686775,0.061241477727890015,0.04920946806669235,-0.06229579448699951,-0.012619879096746445,0.02281010150909424,0.029914118349552155,0.051233984529972076,-0.047482240945100784,-0.05565253645181656,0.03211808204650879,-0.07199893891811371,0.05231315642595291,-0.021683789789676666,-0.027781900018453598,-0.03517155721783638,-0.05405533313751221,0.03349168598651886,0.06304852664470673,-0.04886101931333542,0.0012163668870925903,0.05122729390859604,0.056638047099113464,-0.06340722739696503,0.06642310321331024,-0.061572011560201645,-0.04678405821323395,-0.027823541313409805,0.030824624001979828,0.0031102225184440613,-0.032743651419878006,-0.07079755514860153,-0.06895372271537781,0.06891071796417236,0.05902320146560669,0.058034688234329224,-0.03989981859922409,0.03930263966321945,-0.043082863092422485,-0.060538750141859055,-0.008478373289108276,-0.053213220089673996,0.02224361151456833,0.042039692401885986,-0.011046823114156723,0.002865135669708252,0.008064456284046173,0.04441250115633011,-0.015108611434698105,0.035284362733364105,-0.004417188465595245,-0.05191314220428467,0.02471347153186798,0.060674816370010376,-0.054598625749349594,-0.03762904182076454,-0.06259498000144958,-0.06666725128889084,-0.00662221759557724,-0.07070116698741913,0.0338490754365921,0.0205686092376709,0.004126347601413727,0.017689190804958344,-0.050525449216365814,0.04434660077095032,0.06098230183124542,-0.03293445333838463,0.06347785890102386,-0.0397888720035553,-0.03849658742547035,0.05899195373058319,0.058148324489593506,-0.04597608000040054,0.05485670268535614,0.00718294084072113,0.03043481707572937,-0.033974356949329376,-0.01595740020275116,
0.06376342475414276,-0.045663267374038696,0.032900214195251465,0.023924246430397034,0.034427568316459656,-0.05709138512611389,0.03591877967119217,-0.007342390716075897,-0.008338607847690582,0.06638024747371674,0.02608397603034973,0.02629496157169342,-0.0472274124622345,0.033124394714832306,-0.03752148523926735,-0.00794769823551178,-0.06944698840379715,-0.008141934871673584,0.026956886053085327,0.011251077055931091,-0.05419544875621796,0.00583803653717041,0.061779141426086426,-0.03067062795162201,0.0024500489234924316,0.06625215709209442,0.03997349739074707,0.006281569600105286,-0.059546321630477905,-0.022472012788057327,0.019375793635845184,-0.009771827608346939,-0.00700242817401886,-0.002377524971961975,-0.004067189991474152,0.042489245533943176,-0.04030158743262291,0.03836414963006973,-0.004592172801494598,0.02890719473361969,0.01650809496641159,0.010650180280208588,-0.022807106375694275,-0.05841508507728577,0.01625799387693405,0.025248035788536072,-0.006685517728328705,0.06376391649246216,-0.01759997382760048,-0.06066487357020378,-0.004000365734100342,-0.014076419174671173,-0.052227966487407684,0.04366065561771393,-0.07146352529525757,0.05180981755256653,0.0650973916053772,-0.06914262473583221,-0.025316055864095688,0.0648995190858841,0.0454074963927269,0.06471803784370422,0.03688192367553711,-0.03651491180062294,0.02054572105407715,-0.04512277990579605,-0.06375410407781601,-0.023436877876520157,0.024706311523914337,-0.04005758464336395,0.013479426503181458,-0.03427870199084282,-0.05058568716049194,-0.06617531925439835,0.06373141705989838,0.06780698895454407,0.0707370787858963,0.002572163939476013,0.008755125105381012,-0.03969157114624977,-0.057260386645793915,-0.002049468457698822,-0.03584742546081543,-0.05802685767412186,-0.0505799725651741,-0.01448148861527443,0.05851484835147858,0.007533729076385498,0.016225941479206085,0.01497603952884674,-0.05311977118253708,0.031784966588020325,0.0027419403195381165,-0.04800646752119064,-0.026929721236228943,0.002950221300125122,-0.012984860688447952,0.03449730575084686,0.06459122896194458,0.021226443350315094,-0.021302685141563416,-0.02879473567008972,0.02403399348258972,0.003817513585090637,-0.03851613402366638,0.051383405923843384,0.055780842900276184,-0.031068403273820877,-0.008682698011398315,0.013748101890087128,0.0661611407995224,0.02977973222732544,0.04278300702571869,-0.053100503981113434,-0.024373766034841537,-0.053790926933288574,0.045861467719078064,-0.02395535632967949,0.019879184663295746,0.048632845282554626,-0.049020007252693176,-0.046678341925144196,0.039872683584690094,-0.016142044216394424,0.006273820996284485,-0.06995769590139389,0.011541560292243958,-0.02412303164601326,0.016848281025886536,0.03649130463600159,-0.0019530579447746277,0.06875334680080414,0.07007007300853729,0.04910782724618912,0.05686214566230774,0.048525288701057434,0.06630250811576843,0.0025176703929901123,0.0016022548079490662,0.011176228523254395,-0.027468089014291763,-0.05197938531637192,-0.04973558709025383,0.004880160093307495,0.0380251482129097,0.02884037047624588,0.013119161128997803,-0.026192374527454376,-0.04123925045132637,0.025210686028003693,-0.04565772786736488,-0.03346874564886093,-0.02594013139605522,-0.0695560947060585,0.04321204870939255,0.054843440651893616,0.04372195899486542,0.03709518164396286,0.06461897492408752,0.01777055859565735,0.015470393002033234,0.009059056639671326,0.050226107239723206,-0.016313590109348297,-0.054923467338085175,-0.0018126890063285828,-0.047273699194192886,-0.023860309273004532,0.033740125596523285,-0.07018855214118958,-0.05272357910871506,0.05898772180080414,-0.06423912197351456,0.01073012501001358,0.04234630614519119,0.006659984588623047,-0.027357470244169235,-0.05443497747182846,-0.025996103882789612,0.0021522268652915955,0.04253320395946503,0.0509357824921608,-0.02332458645105362,0.025150872766971588,0.03710313141345978,-0.01267678290605545,-0.035477470606565475,-0.06767880916595459,0.019146792590618134,0.003392942249774933,-0.06286496669054031,-0.044714681804180145,0.02042076736688614,-0.04293394088745117,-0.00541570782661438,0.031972773373126984,0.048392392694950104,-0.05778292566537857,0.0594407320022583,0.003257252275943756,0.06564007699489594,-0.014773979783058167,-0.030960004776716232,-0.06272772699594498,-0.01110953837633133,-0.031602371484041214,0.03555775433778763,0.024072013795375824,-0.056764550507068634,-0.015375860035419464,0.016097016632556915,0.029749400913715363,0.06339243054389954,-0.05577410012483597,-0.05889173969626427,-0.06499325484037399,-0.007426030933856964,0.042485132813453674,-0.0005889087915420532,0.013216100633144379,-0.012723550200462341,-0.03979138657450676,-0.018998369574546814,-0.034279096871614456,-0.013053342700004578,-0.05637842044234276,-0.03864043205976486,-0.055550381541252136,0.03968453407287598,0.03547485172748566,-0.05719594657421112,-0.022968243807554245,-0.05660122632980347,-0.04565659165382385,0.0263710618019104,0.0111098513007164,0.01758340746164322,0.06000933051109314,-0.02450960874557495,0.032867126166820526,0.04239171743392944,-0.048509564250707626,0.009579479694366455,0.01200702041387558,0.03497777879238129,-0.07092587649822235,-0.009753502905368805,0.011343047022819519,-0.03087574616074562,-0.04436972737312317,-0.028783809393644333,-0.008861489593982697,0.05314566195011139,-0.04653267189860344,0.027040667831897736,0.0242142453789711,0.06557907164096832,0.02360699325799942,-0.033574480563402176,0.03829527646303177,0.035551443696022034,-0.027845408767461777,0.016182906925678253,-0.0166325643658638,0.05453002452850342,-0.048871759325265884,0.020251959562301636,-0.014781791716814041,-0.02453390508890152,0.062319234013557434,0.03195914626121521,0.014152415096759796,-0.0032137036323547363,0.04074482619762421,-0.06330598145723343,0.04677726328372955,-0.012606993317604065,0.007312744855880737,-0.0023326873779296875,0.031031377613544464,-0.04103681445121765,-0.06177140027284622,-0.029567115008831024,0.003844216465950012,-0.06366385519504547,0.05917416512966156,0.03623126447200775,-0.015361357480287552,0.013317562639713287,0.029172368347644806,0.0371670201420784,0.012514300644397736,0.05659802258014679,0.03498789668083191,-0.01282721757888794,-0.037762269377708435,-0.010393615812063217,0.037730872631073,-0.0615902841091156,-0.05164160579442978,-0.0015315040946006775,-0.0004673078656196594,0.05958472192287445,0.007423587143421173,0.025827012956142426,-0.02536032721400261,0.026389390230178833,0.0240117609500885,-0.019842326641082764,0.06511707603931427,-0.0533803291618824,-0.016631823033094406,0.02336733043193817,0.026648513972759247,-0.017984073609113693,0.03414224088191986,-0.026407454162836075,0.047923482954502106,-0.0439566895365715,-0.04294951260089874,0.01698233187198639,-0.007190153002738953,-0.05417848378419876,0.027691811323165894,-0.007984153926372528,-0.06993597745895386,-0.06789039820432663,0.010220758616924286,0.006388351321220398,-0.031115103513002396,0.06066489219665527,0.02746688574552536,-0.026036106050014496,0.04893519729375839,0.03299327939748764,0.059476956725120544,0.04527643322944641,0.0664667934179306,0.035464562475681305,-0.04421736299991608,0.03749357908964157,0.056177735328674316,-0.06522306799888611,0.04439636319875717,-0.05870072916150093,0.041242316365242004,-0.003313399851322174,0.06739027798175812,0.07185792922973633,0.033746592700481415,0.019703075289726257,0.0718182921409607,0.029866300523281097,0.012894734740257263,0.03213244676589966,0.06699968874454498,-0.0455651581287384,0.040963634848594666,-0.06979960203170776,-0.04483889415860176,-0.06463368237018585,-0.057172391563653946,-0.029042180627584457,-0.011862333863973618,-0.04975935071706772,0.007080152630805969,0.06571762263774872,0.03364984691143036,-0.07187913358211517,-0.05155368149280548,-0.05575632303953171,-0.06667819619178772,0.0034178420901298523,0.07091467082500458,0.037386469542980194,0.05063537508249283,-0.03461868315935135,-0.06387174874544144,0.05951596796512604,-0.009060882031917572,-7.633119821548462e-05,0.02881239354610443,0.05653195083141327,-0.04286707937717438,0.0382065549492836,0.01385875791311264,-0.017560400068759918,-0.0669310912489891,0.0532878041267395,0.04080645740032196,-0.027748022228479385,0.02228356897830963,-0.023202955722808838,0.050360143184661865,0.06441996991634369,-0.03929515182971954,0.05781035125255585,0.02621757984161377,-0.03210541605949402,-0.022508248686790466,0.03419050574302673,0.05964137613773346,-0.06851125508546829,0.04866328835487366,-0.0548488050699234,-0.0027066990733146667,0.050929777324199677,-0.03768406808376312,0.016415707767009735,-0.07207000255584717,0.003589905798435211,0.009711816906929016,-0.021716926246881485,-0.030985884368419647,-0.06382319331169128,0.06084597110748291,0.015398398041725159,-0.02447092905640602,0.027597777545452118,-0.004750937223434448,-0.03343242406845093,0.05099131166934967,0.042024873197078705,0.06555047631263733,-0.031839389353990555,-0.0517130121588707,-0.028937000781297684,-0.032359760254621506,-0.000261843204498291,-0.029367107897996902,0.07127541303634644,0.06476740539073944,0.025698207318782806,0.04289507120847702,-0.004142232239246368,0.060828596353530884,0.03457175940275192,0.003196120262145996,-0.03584969788789749,0.016654573380947113,-0.04042840003967285,-0.010106459259986877,0.03963558375835419,0.045527681708335876,-0.001256205141544342,0.047886915504932404,0.023167923092842102,0.017770521342754364,-0.01205640658736229,0.054121315479278564,0.02500876784324646,-0.025965146720409393,-0.03672974929213524,0.03877802938222885,0.05576863884925842,0.04861218482255936,-0.00955183058977127,-0.002864740788936615,0.03197026252746582,0.024341896176338196,-0.011816427111625671,0.021467432379722595,0.0336458683013916,-0.05254315212368965,-0.0010889917612075806,0.0013198181986808777,0.0033876225352287292,0.059856951236724854,-0.015905112028121948,0.015389710664749146,0.0015007779002189636,-0.03712036833167076,0.04483889043331146,0.06462904810905457,0.06968824565410614,0.0014631971716880798,0.0295855775475502,0.06875835359096527,-0.042803842574357986,0.035210274159908295,0.03913411498069763,-0.04611949622631073,0.06978487968444824,0.03682044893503189,-0.05553922802209854,-0.012640614062547684,0.007868960499763489,0.008648097515106201,0.019976191222667694,-0.035095248371362686,0.058577001094818115,0.006488904356956482,0.049934737384319305,0.036523036658763885,0.008879296481609344,-0.028135869652032852,0.055767133831977844,-0.058705512434244156,0.0008869394659996033,0.04877037554979324,0.05800347030162811,0.04413176327943802,-0.06791658699512482,0.046736136078834534,0.02595370262861252,0.06526756286621094,0.06062068045139313,-0.04096867889165878,0.06930774450302124,0.006500847637653351,-0.017454255372285843,-0.05661049857735634,-0.04020853713154793,-0.01646013930439949,0.0100020170211792,0.005263239145278931,0.04575379192829132,-0.012408051639795303,-0.05322560667991638,-0.010397177189588547,-0.033113639801740646,-0.06975183635950089,0.025371477007865906,0.018851429224014282,-0.03827803209424019,0.03037314862012863,0.0389455184340477,0.04140245169401169,0.05380885303020477,0.03860776126384735,-0.020795147866010666,0.007991589605808258,0.04495455324649811,-0.06360489130020142,-0.055835746228694916,-0.051668431609869,0.06770257651805878,-0.028746798634529114,0.005140528082847595,0.010956525802612305,-0.07212100178003311,0.06321851909160614,-0.014522373676300049,-0.04216823726892471,0.0589594841003418,-0.06083277240395546,-0.025770235806703568,0.03604406118392944,0.05837401747703552,0.030104592442512512,-0.02590293064713478,-0.05193282663822174,0.06896573305130005,-0.05987454950809479,-0.05472474917769432,0.023177370429039,-0.0540362186729908,0.06505267322063446,-0.05268482863903046,-0.006007730960845947,-0.03257494419813156,-0.06634877622127533,-0.02367771416902542,0.037598878145217896,-0.06671353429555893,-0.05566616356372833,-0.015191495418548584,-0.06329281628131866,0.052276454865932465,0.0058978646993637085,-0.06386040896177292,-0.0035601183772087097,-0.040420569479465485,0.036902882158756256,0.05107206106185913,-0.04935322701931,
0.05537085235118866,-0.02615046128630638,0.03266923129558563,-0.04401787370443344,0.05027788132429123,-0.024199172854423523,0.06259368360042572,-0.05635806545615196,0.044342681765556335,-0.06050616130232811,-0.023717116564512253,0.053017258644104004,0.004913799464702606,-0.038316093385219574,0.027949251234531403,-0.003277331590652466,0.03508368879556656,-0.049966998398303986,0.0016416609287261963,0.0029797330498695374,0.035216689109802246,0.05861493945121765,0.014655224978923798,-0.02164311334490776,0.007522545754909515,0.005505815148353577,-0.021410655230283737,-0.007457159459590912,-0.006154187023639679,0.02326570451259613,0.04604194313287735,-0.004820249974727631,0.002668917179107666,-0.03616106137633324,-0.011645432561635971,-0.017344579100608826,-0.02723783627152443,0.03143259882926941,0.06216228008270264,-0.05820107460021973,0.011583216488361359,0.03137517720460892,0.06155022978782654,0.0514448881149292,0.06752905249595642,0.06922981142997742,0.05394628643989563,0.039843812584877014,-0.018384549766778946,-0.024816449731588364,-0.05573720484972,0.02423456311225891,0.02753901481628418,-0.011351462453603745,-0.07118189334869385,-0.008818164467811584,0.0297391414642334,0.0042273178696632385,-0.06228961795568466,-0.05294092744588852,-0.03279417008161545,-0.06565405428409576,0.06551223993301392,-0.022830095142126083,0.045638538897037506,-0.06613501906394958,-0.04862586408853531,-0.02880501002073288,0.007407791912555695,-0.02096516266465187,-0.04072381556034088,-0.0033444762229919434,-0.05778634920716286,-0.05627812445163727,-0.022419843822717667,0.05029457062482834,0.034277498722076416,0.07104894518852234,-0.010493982583284378,-0.018726855516433716,-0.05835741013288498,0.06344550848007202,-0.062414780259132385,-0.06791746616363525,0.004098609089851379,0.049508653581142426,0.061889246106147766,0.06196823716163635,-0.01667196676135063,0.05838067829608917,-0.027551352977752686,0.017304524779319763,-0.04609977453947067,-0.014385219663381577,0.043520957231521606,-0.0018319115042686462,-0.0377194806933403,0.06017041206359863,0.030377313494682312,-0.05832876265048981,0.060460060834884644,-0.07188832014799118,-0.00228920578956604,-0.052657660096883774,0.060477182269096375,-0.022317688912153244,-0.036507513374090195,0.04936054348945618,0.023719437420368195,-0.022465955466032028,0.016936957836151123,-0.031076975166797638,0.06087175011634827,0.04694202542304993,-0.06202206015586853,0.037197403609752655,-0.06040297448635101,0.014270089566707611,0.008126743137836456,0.025729835033416748,0.020537175238132477,-0.013848330825567245,0.04480895400047302,-0.04632793366909027,-0.010600179433822632,-0.06222110241651535,-0.05002947151660919,0.004255756735801697,-0.04157605022192001,-0.05244072526693344,-0.04506734013557434,-0.0674818679690361,0.02345798909664154,-0.057361900806427,0.00704752653837204,-0.03917350247502327,0.03129902482032776,0.056853488087654114,-0.05878283828496933,0.03836542367935181,-0.06262221932411194,-0.048455655574798584,-0.012092214077711105,0.05175463855266571,0.03231917321681976,0.03790467232465744,0.0018573254346847534,0.05854499340057373,0.02519741654396057,0.014240100979804993,-0.02055816352367401,0.021446704864501953,-0.057329211384058,0.013061776757240295,0.01859479397535324,-0.03181369975209236,-0.0327388159930706,0.01144959032535553,-0.01650058850646019,0.04046320915222168,-0.04316844791173935,0.05810447037220001,-0.04559681564569473,-0.017884429544210434,0.05639664828777313,-0.02190566435456276,0.02311759442090988,0.022695697844028473,-0.029894068837165833,0.05024408549070358,-0.05449580401182175,-0.06461890041828156,-0.06581961363554001,0.0429040864109993,0.019565731287002563,0.047754235565662384,0.02818886935710907,0.014617681503295898,0.020922012627124786,-0.06618829071521759,-0.015269681811332703,0.005069807171821594,0.04195656627416611,-0.061225730925798416,0.007841341197490692,0.0009932070970535278,0.012445084750652313,0.02273412048816681,0.06268773972988129,-0.010593760758638382,-0.04019995033740997,0.03863098472356796,0.02913554012775421,0.057345449924468994,-0.021274741739034653,0.0053948163986206055,0.01686791330575943,-0.025910086929798126,-0.052217334508895874,-0.009964197874069214,-0.05435045808553696,0.006585709750652313,-0.06145831197500229,-0.060094259679317474,-0.027928996831178665,-0.004204615950584412,0.015076540410518646,-0.0033410117030143738,0.0013813823461532593,-0.011284027248620987,0.031122006475925446,-0.06547673791646957,0.038087524473667145,0.06742407381534576,0.01984924077987671,0.057499900460243225,0.033398717641830444,0.05111891031265259,0.0613631010055542,0.011389277875423431,0.06737737357616425,-0.03760925307869911,0.001640819013118744,0.00685400515794754,0.062488824129104614,-0.06064821779727936,-0.05235028639435768,-0.06290484964847565,0.06185510754585266,0.02754852920770645,0.06756232678890228,0.04412159323692322,0.04947064071893692,-0.0015446022152900696,0.06663115322589874,0.017103515565395355,-0.027377240359783173,0.006034880876541138,-0.008238255977630615,-0.05267729610204697,-0.014544550329446793,0.07164400815963745,-0.0396919846534729,0.06705233454704285,-0.019721727818250656,-0.07104276120662689,-0.03712666779756546,-0.0364358127117157,-0.019811253994703293,-0.02962609753012657,-0.01263263076543808,0.05843423306941986,-0.07155344635248184,0.04888368397951126,0.06119436025619507,-0.001331426203250885,-0.05761430412530899,0.007642433047294617,0.02732328325510025,-0.05937771499156952,-0.06891968846321106,-0.0444248728454113,-0.07026027143001556,-0.06076350063085556,-0.046948134899139404,-0.06606044620275497,0.012239381670951843,-0.011190753430128098,0.04672294110059738,0.05080145597457886,0.03742017596960068,-0.009775631129741669,0.06517256796360016,-0.052884407341480255,-0.061394646763801575,0.02875635027885437,0.0201912522315979,0.04647664725780487,0.026342347264289856,-0.055941808968782425,-0.006206944584846497,0.06573107838630676,0.060107454657554626,-0.0102936290204525,-0.03019684925675392,-0.00636976957321167,0.03460441529750824,-0.06466205418109894,-0.061060965061187744,0.022972680628299713,0.02484460175037384,-0.05626614764332771,0.02746395766735077,0.006345421075820923,-0.0036854371428489685,-0.015930544584989548,0.048742346465587616,-0.061727315187454224,-0.02953333780169487,-0.020025435835123062,0.05688263475894928,0.009579546749591827,0.06840521097183228,0.05331665277481079,-0.01367272064089775,0.052329227328300476,-0.041417889297008514,0.006345130503177643,0.026337891817092896,-0.021803628653287888,0.017521068453788757,-0.04298340901732445,-0.043096646666526794,-0.05100405961275101,-0.07165749371051788,-0.023562569171190262,0.03300347179174423,0.02347777783870697,0.023815900087356567,0.0559253990650177,-0.00045696645975112915,0.0005625635385513306,-0.06871321052312851,-0.04070175811648369,-0.05886417254805565,0.008196376264095306,0.06011079251766205,-0.06929994374513626,-0.03460127115249634,0.060019731521606445,0.028994880616664886,-0.057773858308792114,-0.0016004517674446106,-0.06145419925451279,-0.03619513288140297,-0.04079434648156166,-0.0034046247601509094,-0.04860774427652359,0.026556149125099182,-0.014880731701850891,0.05669081211090088,0.019967660307884216,-0.041572846472263336,-0.021351981908082962,0.04477804899215698,0.045984938740730286,0.013308033347129822,-0.021420098841190338,-0.02643316239118576,-0.022962789982557297,0.05373789370059967,0.00177803635597229,0.007486648857593536,0.04210330545902252,0.0703921765089035,0.031094923615455627,0.011394545435905457,0.03264819085597992,0.05392460525035858,0.003814898431301117,0.009820178151130676,0.05194469541311264,0.026141665875911713,0.06648167967796326,0.010383374989032745,0.03347413241863251,-0.06022535264492035,-0.009194053709506989,0.011350512504577637,-0.00726684182882309,0.019590869545936584,-0.0349845252931118,0.06686148047447205,0.06388485431671143,0.05683988332748413,0.01016339659690857,-0.00020415335893630981,-0.028668906539678574,-0.07139191776514053,0.06709621846675873,0.028433457016944885,-0.02321021631360054,-0.0421576052904129,-0.03994116559624672,-0.019254006445407867,-0.03245358541607857,-0.0563339926302433,-0.001293681561946869,-0.018459003418684006,0.0024032145738601685,0.023835912346839905,-0.024685528129339218,-0.054615747183561325,0.03470213711261749,0.030926965177059174,0.01752760261297226,0.032266534864902496,0.06240078806877136,0.030282333493232727,-0.006987631320953369,0.047129735350608826,0.013494066894054413,0.012284718453884125,-0.03670629858970642,-0.03493373095989227,0.037746988236904144,-0.03517840802669525,0.053469642996788025,-0.01917451247572899,-0.00038398057222366333,-0.04877167195081711,0.06020958721637726,-0.06289177387952805,-0.002153724431991577,-0.06420565396547318,0.0445234477519989,0.05791313946247101,-0.007210381329059601,-0.043350182473659515,-0.009568743407726288,-0.03811698034405708,-0.05181052163243294,-0.04525846987962723,0.008802510797977448,0.06569899618625641,-0.003712393343448639,-0.0605585053563118,0.004214733839035034,-0.04889634624123573,0.006645411252975464,0.03482392430305481,0.004431761801242828,-0.016539838165044785,0.05262839049100876,-0.029578763991594315,-0.05310272052884102,0.04989371448755264,0.03384563326835632,0.018316447734832764,-0.01957707479596138,-0.04120982810854912,0.05612514913082123,-0.04823627322912216,-0.03390876576304436,0.06041896343231201,0.013665840029716492,0.06779864430427551,0.028337478637695312,-0.02969038113951683,-0.04047948494553566,-0.005049712955951691,-0.07004744559526443,-0.032374557107686996,-0.029856491833925247,-0.015096083283424377,0.055821582674980164,0.032015666365623474,0.050467200577259064,0.062049105763435364,0.05071216821670532,0.03410334885120392,0.0211726576089859,-0.01811014488339424,-0.06073901429772377,-0.03186877816915512,-0.033256180584430695,0.00802968442440033,0.010995633900165558,-0.00471150130033493,0.03632628172636032,-0.013458553701639175,-0.023659907281398773,-0.012320112437009811,-0.057542018592357635,0.005080610513687134,-0.03353387117385864,-0.06070768088102341,-0.06052030622959137,-0.04469984769821167,0.03897915780544281,0.024994641542434692,-0.032785963267087936,-0.026645850390195847,0.04475893825292587,-0.029861874878406525,-0.045713163912296295,-0.05557090789079666,-0.025588206946849823,-0.009072855114936829,-0.031614966690540314,-0.00856039673089981,-0.06723485141992569,0.02430686354637146,0.06841591000556946,0.009249784052371979,0.06312039494514465,-0.006686463952064514,-0.030633393675088882,0.018517985939979553,-0.05570998787879944,-9.529292583465576e-06,-0.053216610103845596,0.030127905309200287,0.0717676430940628,0.006234683096408844,-0.012625627219676971,-0.015993844717741013,0.007034003734588623,-0.05992389842867851,-0.05339870601892471,0.00600685179233551,-0.056127965450286865,0.037449851632118225,-0.01588776707649231,0.04151962697505951,-0.04989631474018097,-0.0657956600189209,0.059569016098976135,0.06716862320899963,-0.03993357717990875,0.025829799473285675,0.0161915123462677,-0.012121874839067459,-0.0699002742767334,-0.06481616944074631,-0.028077714145183563,-0.012935858219861984,-0.039993371814489365,-0.058704741299152374,-0.021851688623428345,0.044233985245227814,0.023171178996562958,-0.03912324458360672,0.06333330273628235,-0.0026883110404014587,-0.04591532424092293,0.026280507445335388,-0.036432597786188126,-0.023122724145650864,-0.07140886038541794,-0.050410956144332886,-0.061269041150808334,0.01718199998140335,-0.0626055970788002,0.012587428092956543,-0.014851134270429611,-0.0551772266626358,-0.012913335114717484,0.04024682193994522,-0.047241196036338806,0.03676259517669678,0.050880588591098785,-0.06407607346773148,0.027882561087608337,0.02401982992887497,0.0448160246014595,0.00444437563419342,-0.06678805500268936,-0.025240089744329453,0.019920602440834045,0.071247398853302,-0.010348312556743622,-0.03622303903102875,0.0218726247549057,0.0488395169377327,0.0436595156788826,-0.056267816573381424,-0.04834432899951935,-0.048156797885894775,0.06676729023456573,0.011576637625694275,0.00042532384395599365,-0.030375350266695023,-0.010700352489948273,0.030900731682777405,-0.058993980288505554,
-0.06704208999872208,-0.00917305052280426,0.007572203874588013,-0.014264397323131561,-0.05855592340230942,0.05494989454746246,0.01697360724210739,0.002894386649131775,0.01042715460062027,-0.0311749130487442,-0.05118168145418167,0.03121090680360794,0.06253516674041748,-0.0006236657500267029,0.024440698325634003,0.02323993295431137,-0.03346826508641243,-0.05633719265460968,-0.02536187320947647,-0.03995663672685623,-0.005276091396808624,0.06337903439998627,-0.0528862327337265,0.054931893944740295,0.04402981698513031,-0.04607868194580078,0.07088121771812439,0.027577057480812073,-0.05399385839700699,-0.028508353978395462,-0.017921026796102524,-0.013554032891988754,-0.054472729563713074,0.020706549286842346,0.06346108019351959,-0.05973189324140549,0.040898680686950684,-0.05809902399778366,-0.05978068709373474,-0.04163482412695885,-0.012264501303434372,0.02879064530134201,-0.019257981330156326,-0.053358614444732666,-0.030597448348999023,0.05489695072174072,0.017667733132839203,-0.057568758726119995,0.026558592915534973,-0.03593464568257332,-0.06576886773109436,-0.03535948693752289,0.019018329679965973,0.003748081624507904,-0.013693731278181076,0.06484171748161316,-0.055205583572387695,0.05458098649978638,0.06901387870311737,0.02140234410762787,0.03701061010360718,0.019326820969581604,0.04382055252790451,0.018467143177986145,0.010832414031028748,-0.04333331808447838,-0.07033496350049973,-0.015147153288125992,0.01910453289747238,-0.028250601142644882,-0.04059850051999092,-0.015172310173511505,0.03235160559415817,-0.01563650369644165,0.04682960361242294,-0.02282721921801567,-0.021849796175956726,0.019663996994495392,0.05919957160949707,0.018056683242321014,0.032816849648952484,-0.03676849976181984,0.07037925720214844,-0.058784954249858856,0.026836290955543518,-0.05794120579957962,0.022068902850151062,-0.01657433807849884,0.0006813406944274902,0.048012763261795044,0.06293757259845734,0.05908961594104767,-0.00939815491437912,0.003520749509334564,-0.0010602399706840515,-0.02536953240633011,-0.06497436761856079,-0.06955637037754059,0.051353782415390015,-0.04015839844942093,0.06926003098487854,0.040556102991104126,-0.002830222249031067,-0.0689769983291626,0.017288193106651306,0.06701987981796265,-0.010250061750411987,-0.05022788047790527,0.05479210615158081,-0.016603242605924606,0.04255324602127075,-0.034351348876953125,-0.006044857203960419,0.0203465074300766,0.05228172242641449,0.061629459261894226,0.007400102913379669,0.004746966063976288,-0.03641373664140701,0.02678116410970688,-0.059310730546712875,-0.03907272592186928,0.0487200990319252,0.05733834207057953,-0.042789801955223083,0.009019240736961365,-0.0001642853021621704,-0.06292654573917389,-0.04049600288271904,-0.022935226559638977,0.00907958298921585,-0.001272737979888916,0.05389954149723053,0.06808356940746307,-0.05874742940068245,-0.06125336512923241,-0.003602534532546997,-0.04814399778842926,-0.013978667557239532,0.04825059324502945,0.033596470952034,-0.0560746043920517,-0.020482901483774185,0.03586474806070328,-0.06860029697418213,-0.05738413333892822,0.03268236666917801,0.04840166121721268,0.006212808191776276,-0.05587688833475113,0.046182796359062195,-0.07089341431856155,-0.0025370940566062927,0.01774543523788452,-0.06557337194681168,0.04714508354663849,-0.06261897087097168,-0.05896293744444847,-0.03477909788489342,0.013227090239524841,0.005959205329418182,0.04878260940313339,-0.050017066299915314,-0.04858756065368652,0.011974453926086426,-0.042035408318042755,0.05569438636302948,-0.03854101523756981,0.05440704524517059,-0.045117463916540146,0.008357703685760498,-0.02601896971464157,-0.0228177048265934,0.05979330837726593,-0.0645676925778389,0.0036759525537490845,-0.07104098796844482,-0.006974898278713226,-0.015599440783262253,-0.040245942771434784,0.009512186050415039,0.03981487452983856,0.02891850471496582,-0.06496657431125641,-0.07082738727331161,-0.051754169166088104,-0.03280416876077652,-0.007090732455253601,0.029253683984279633,0.04504924267530441,-0.01315620169043541,-0.02090325579047203,0.061344027519226074,0.012507244944572449,0.03522684425115585,-0.04272658750414848,-0.02248813584446907,0.023616664111614227,-0.007246159017086029,0.03835270553827286,-0.039847493171691895,-0.06436863541603088,0.005153365433216095,-0.07111315429210663,0.048371486365795135,-0.023927636444568634,0.03883550316095352,-0.008505180478096008,-0.014456644654273987,0.007451415061950684,0.032862305641174316,-0.04360297694802284,0.06903520226478577,0.06420207023620605,0.040201880037784576,0.06216131150722504,-0.030473493039608,0.04186869412660599,-0.007692441344261169,-0.0631943792104721,-0.052398499101400375,0.021915435791015625,-0.06350956857204437,-0.042445555329322815,-0.06854628771543503,-0.06086811423301697,0.049203187227249146,-0.033068060874938965,0.032242946326732635,0.05639055371284485,0.028360135853290558,0.04918501526117325,-0.026553727686405182,-0.03298887610435486,-0.021260667592287064,0.06802429258823395,-0.004715628921985626,0.0012066811323165894,0.01385430246591568,0.0561436265707016,-0.024539202451705933,0.02536526322364807,-0.02075357735157013,-0.046754270792007446,0.004770316183567047,-0.010856036096811295,0.045262791216373444,-0.030152268707752228,-0.020851586014032364,0.01840996742248535,-0.02101072669029236,-0.058200232684612274,-0.0060394927859306335,0.03726202994585037,0.021066851913928986,0.06998293101787567,-0.00970873236656189,-0.06367884576320648,0.04057294875383377,-0.056742921471595764,-0.02189509943127632,-0.030640259385108948,0.06925034523010254,0.05903877317905426,0.06603744626045227,0.06041562557220459,0.03186466544866562,0.035574428737163544,0.006887368857860565,-0.05390849709510803,0.01496153324842453,0.010544054210186005,-0.008861832320690155,0.057904213666915894,0.049558788537979126,0.019111283123493195,-0.02505374327301979,0.002739235758781433,0.0008532628417015076,0.044548243284225464,-0.048206113278865814,-0.005582369863986969,0.014507181942462921,0.013349518179893494,0.06878772377967834,-0.03832964971661568,-0.032663557678461075,0.05398707091808319,0.06068897247314453,-0.03666694834828377,-0.07064720243215561,-0.023412633687257767,-0.07037283480167389,-0.04614769667387009,-0.06077829748392105,0.03823714703321457,-0.02313927561044693,0.008647270500659943,0.036525048315525055,0.021800294518470764,0.02899888902902603,0.02062220871448517,0.02374943345785141,0.03294903039932251,0.03481525182723999,0.04108630120754242,-0.034590497612953186,-0.06962794810533524,0.05847172439098358,-0.002245292067527771,-0.02313338965177536,-0.06277786940336227,0.06232325732707977,-0.035170406103134155,-0.002323925495147705,0.02166539430618286,0.011467806994915009,-0.031241878867149353,0.028110213577747345,-0.014384668320417404,-0.04703821241855621,-0.016102641820907593,-0.01406724750995636,-0.012603674083948135,-0.02047896385192871,0.05098671466112137,-0.07060200721025467,0.011647529900074005,-0.005373314023017883,0.027099668979644775,-0.01590743288397789,-0.05369109287858009,0.046671681106090546,-0.03854385390877724,-0.008560962975025177,-0.0034799575805664062,-0.037985507398843765,-0.02183319255709648,-0.06543141603469849,-0.0191415473818779,-0.03955324739217758,-0.019688673317432404,0.05764190852642059,0.035555556416511536,-0.06058357283473015,-0.04300708323717117,-0.04622414708137512,-0.036870017647743225,-0.0479356124997139,-0.0011514350771903992,-0.07152419537305832,0.055846065282821655,0.006046183407306671,0.036233723163604736,0.04242442548274994,-0.0073664262890815735,-0.04718419164419174,-0.01032375916838646,-0.02228303626179695,-0.035713162273168564,-0.07172840088605881,-0.016078364104032516,-0.07181701809167862,-0.01820015162229538,-0.007692389190196991,0.04772353917360306,0.02928568422794342,-0.026871010661125183,-0.06806892901659012,0.040066152811050415,-0.041362911462783813,0.018127024173736572,-0.04791546240448952,-0.052894264459609985,-0.04783400893211365,-0.06421458721160889,-0.0035182759165763855,-0.004023261368274689,-0.04280850663781166,0.04735620319843292,-0.03325898200273514,0.00549335777759552,-0.017288092523813248,0.014546304941177368,0.025373302400112152,0.05642342567443848,0.06302744150161743,0.022448986768722534,0.020180121064186096,-0.012440349906682968,0.003015570342540741,-0.008128173649311066,0.055067241191864014,-0.006032519042491913,-0.03326275199651718,-0.059415724128484726,0.07188259065151215,-0.05288287252187729,-0.05157510191202164,0.012590013444423676,-0.06822489202022552,-0.042498983442783356,-0.048620909452438354,-0.019268028438091278,0.020323917269706726,-0.04833047837018967,-0.03844797983765602,-0.002368733286857605,-0.05896381661295891,0.00430520623922348,-0.05699623376131058,-0.02830977365374565,-0.054338790476322174,-0.04126736521720886,0.06442819535732269,0.048201605677604675,-0.03151300176978111,-0.00999804213643074,-0.03594749793410301,0.0380953848361969,0.03815530240535736,0.018937841057777405,0.020993053913116455,-0.05752236768603325,0.06617975234985352,-0.055520907044410706,-0.05195178836584091,0.025290988385677338,0.058382704854011536,-0.05944502726197243,0.018691375851631165,-0.01961599290370941,-0.020317018032073975,-0.05597028508782387,-0.02398161217570305,-0.032184943556785583,0.029499821364879608,0.036929771304130554,0.0640229731798172,-0.01746273785829544,-0.060422882437705994,-0.05657779052853584,-0.049645133316516876,0.017349980771541595,0.014514334499835968,0.004266269505023956,0.04533522576093674,0.02187381684780121,-0.009754348546266556,0.04039476066827774,0.049571022391319275,0.05584760010242462,0.03182172030210495,0.05297920107841492,0.021574288606643677,0.016660936176776886,-0.03716517612338066,-0.0036819055676460266,-0.035018954426050186,-0.034821685403585434,-0.05529964715242386,0.013254158198833466,-0.014770332723855972,-0.06717927753925323,-0.04299144446849823,-0.05638270452618599,-0.04118821769952774,-0.0012862831354141235,-0.0717165470123291,0.07128803431987762,0.045185014605522156,-0.05001973360776901,0.04041437804698944,-0.04666227102279663,0.048241131007671356,0.034178197383880615,0.03055458515882492,-0.05447634309530258,0.014364436268806458,-0.03052821010351181,-0.002203933894634247,0.0491289421916008,-0.03875955194234848,-0.03630996495485306,0.058466836810112,-0.030566029250621796,-0.06830158084630966,0.061944857239723206,0.010605894029140472,0.05732910335063934,0.05880631506443024,-0.0017607435584068298,-0.058894939720630646,-0.026502881199121475,0.04356659948825836,-0.029965493828058243,0.0006460323929786682,-0.01613559201359749,0.0021408870816230774,-0.03447924181818962,-0.01461726427078247,-0.04785711318254471,0.005681097507476807,-0.03225342556834221,0.02645091712474823,-0.047897808253765106,-0.0687948539853096,0.029175758361816406,-0.038393039256334305,-0.05731268972158432,0.022466450929641724,-0.03008721023797989,0.03535831719636917,0.03868652880191803,-0.011723600327968597,-0.044142015278339386,-0.041976198554039,0.005286365747451782,-0.04391396418213844,-0.04930802434682846,0.06436207890510559,-0.04384732246398926,0.05057390034198761,-0.028754595667123795,0.06102004647254944,-0.004031747579574585,0.03995323181152344,0.00976012647151947,0.04513426125049591,0.04168682545423508,0.005198940634727478,0.03344105929136276,0.010154932737350464,0.048270754516124725,-0.035584598779678345,0.017678312957286835,0.03882034122943878,0.07028335332870483,0.05137103796005249,-0.06129448860883713,-0.03371419385075569,0.06411217153072357,0.06822921335697174,-0.042241211980581284,-0.04401305690407753,0.03874079883098602,-0.03951260820031166,-0.04215313494205475,0.04178978502750397,0.04929161071777344,-0.0696597471833229,-0.011634211987257004,0.07031132280826569,-0.003098711371421814,-0.04035678505897522,-0.010828543454408646,-0.018477242439985275,0.026044465601444244,-0.0034461095929145813,-0.024636350572109222,0.06712478399276733,0.06211981177330017,0.02764156460762024,0.0050702691078186035,-0.07133174687623978,-0.07117173820734024,0.012512564659118652,0.015104345977306366,0.029913030564785004,-0.025898490101099014,-0.013201627880334854,-0.0022397711873054504,0.05924214422702789,0.04595212638378143,-0.06843778491020203,-0.05649029463529587,
-0.03557821363210678,0.017763055860996246,-0.045527078211307526,-0.05786644667387009,0.05930888652801514,-0.05788344517350197,0.0388563871383667,-0.02367508038878441,-0.011282015591859818,-0.05644843354821205,-0.01433408260345459,-0.04708143323659897,0.04137846827507019,-0.05592776834964752,0.034688904881477356,0.05834132432937622,-0.018089186400175095,-0.03867214545607567,-0.06924368441104889,-0.06065172702074051,0.061479613184928894,0.014665201306343079,-0.062052205204963684,0.06610618531703949,-0.06728246062994003,0.05206787586212158,-0.06852132081985474,0.0018614009022712708,-0.04078302159905434,0.017058834433555603,0.05356723070144653,0.04101640731096268,0.0020686686038970947,-0.03461987152695656,-0.0444888100028038,-0.033959608525037766,0.05020907521247864,0.03178168088197708,0.008086465299129486,-0.02500210702419281,-0.00029037147760391235,-0.03931879624724388,0.00476575642824173,0.028786510229110718,0.06519681215286255,-0.002261713147163391,0.014370925724506378,-0.009916622191667557,0.0675216019153595,0.07120634615421295,-0.07178554683923721,-0.018237505108118057,0.027407266199588776,0.0026090219616889954,0.043902866542339325,-0.049549639225006104,0.0409984290599823,0.057763561606407166,0.009737484157085419,0.024621643126010895,0.05180937051773071,-0.06622810661792755,-0.07147149741649628,-0.046052683144807816,0.02090955525636673,0.03140683472156525,-0.01832568645477295,0.04524640738964081,-0.028522979468107224,0.004780709743499756,0.02717117965221405,0.00149623304605484,0.05721136927604675,-0.03291502967476845,-0.023925159126520157,0.0661977082490921,0.002177327871322632,0.07210329174995422,0.05829939246177673,-0.027829527854919434,0.00555255264043808,0.021770678460597992,-0.022346455603837967,0.04563238471746445,0.063105508685112,-0.05534834414720535,0.03036191314458847,0.04235384613275528,-0.05118768662214279,0.01768280565738678,-0.03473830223083496,0.052679307758808136,0.051354505121707916,0.06269574165344238,-0.07209058105945587,-0.07177165895700455,-0.04902109503746033,0.05029023438692093,0.0617549866437912,-0.02313202992081642,0.009681545197963715,0.05388016998767853,0.058108001947402954,0.06564472615718842,-0.010352116078138351,-0.06651084125041962,0.021081767976284027,0.0026934370398521423,0.017149806022644043,-0.05709594488143921,-0.0424233078956604,-0.014786042273044586,-0.0511527918279171,-0.026672985404729843,-0.017247501760721207,-0.05702739208936691,0.016049936413764954,0.00577998161315918,0.05279916524887085,-0.04717789590358734,0.0299464613199234,-0.05528698489069939,-0.0608808659017086,-0.06884007155895233,0.06399142742156982,-0.025938957929611206,-0.029436688870191574,0.026227325201034546,-0.030795201659202576,0.010795973241329193,0.02230565994977951,-0.030814196914434433,-0.007631473243236542,-0.03874281048774719,0.057344287633895874,0.044352173805236816,-0.023751545697450638,-0.0008773878216743469,0.015816979110240936,0.056699320673942566,-0.035559460520744324,0.01645771414041519,0.008270487189292908,0.010428100824356079,0.018201902508735657,-0.009036287665367126,0.061402469873428345,0.03879763185977936,0.057892024517059326,0.029822058975696564,0.026378564536571503,-0.06179109960794449,0.055711761116981506,-0.03502846881747246,-0.02679619938135147,0.06785997748374939,0.045396946370601654,0.02600482851266861,0.023098498582839966,-0.019172601401805878,-0.030711904168128967,0.06356468796730042,-0.02474827691912651,0.0712575614452362,0.004538595676422119,-0.05725350230932236,-0.03602800518274307,0.015940986573696136,0.014819182455539703,-0.01104121282696724,0.06853155791759491,0.03570423275232315,0.04494883865118027,-0.0570511557161808,0.04801398515701294,-0.06455447524785995,0.026733964681625366,0.04235664755105972,0.06034648418426514,0.056975945830345154,-0.03989288583397865,-0.034193530678749084,-0.026201028376817703,-0.025190208107233047,-0.0566105842590332,-0.055936526507139206,-0.04351209104061127,-0.010095138102769852,0.04449247568845749,0.04000808298587799,0.05953891575336456,0.03444144129753113,0.05632966756820679,0.03165341913700104,0.006349705159664154,-0.019063618034124374,0.03720077872276306,0.005599096417427063,0.061449989676475525,-0.0007716044783592224,0.0600326806306839,-0.06510631740093231,-0.009575679898262024,0.015589326620101929,-0.003939196467399597,0.05870477855205536,0.05034995824098587,-0.004626862704753876,-0.014538925141096115,-0.033796459436416626,0.026695676147937775,-0.03555317968130112,-0.04427897930145264,-0.07052496820688248,0.07054443657398224,-0.041889481246471405,0.026453502476215363,-0.03429048880934715,-0.01196330413222313,0.018047429621219635,0.03264729678630829,0.005118556320667267,-0.05164418742060661,0.012689545750617981,-0.005385063588619232,0.05589693784713745,-0.015128672122955322,0.022462494671344757,-0.06703369319438934,-0.038089554756879807,0.015415214002132416,0.026577763259410858,0.06003190577030182,-0.042489103972911835,0.05957701802253723,0.007657185196876526,-0.0580979585647583,0.02321206033229828,0.02558782696723938,0.06337936222553253,0.07074682414531708,-0.059577394276857376,-0.01786373183131218,0.012854248285293579,-0.05157553404569626,0.04010169953107834,0.060346126556396484,0.07176627218723297,-0.05730176717042923,-0.027686044573783875,0.05755293369293213,0.018071547150611877,-0.00255391001701355,-0.04004271700978279,-0.04447033256292343,0.021862410008907318,-0.012401770800352097,0.05765156447887421,0.028657138347625732,-0.047328002750873566,-0.04385031759738922,-0.0024271830916404724,-0.0447876863181591,0.0223231241106987,0.030084989964962006,-0.03667646273970604,0.059024378657341,-0.06258223205804825,-0.04567335173487663,0.03584519028663635,0.06569798290729523,-0.012989196926355362,0.04369353502988815,-0.0443367063999176,0.013012446463108063,-0.016737934201955795,-0.02027343213558197,0.05778151750564575,0.021732620894908905,-0.07145868986845016,-0.03537588566541672,0.0667741596698761,0.022364646196365356,-0.003099285066127777,-0.0414009727537632,-0.01646481826901436,-0.025363441556692123,0.01736469566822052,0.014369785785675049,0.03284331411123276,-0.032103780657052994,0.0037145987153053284,-0.008394405245780945,0.047748856246471405,-0.0644625797867775,0.014426305890083313,0.008193142712116241,0.03486187756061554,0.029973134398460388,0.026712335646152496,0.0643862783908844,0.006304055452346802,0.047473616898059845,0.04217571020126343,-0.03958643972873688,-0.003886304795742035,0.070395827293396,0.015820510685443878,-0.005477704107761383,0.022917449474334717,-0.03391258418560028,0.07191348075866699,-0.009520664811134338,-0.03140520304441452,-0.050170667469501495,-0.06997760385274887,-0.059025879949331284,-0.055050209164619446,0.0599052757024765,-0.06155936419963837,-0.03718692436814308,-0.028811238706111908,-0.01841922104358673,0.0006631836295127869,-0.02294764667749405,0.020284011960029602,0.004540145397186279,-0.061297930777072906,-0.011764757335186005,0.03236228972673416,-0.06904114782810211,0.04460839927196503,-0.04943770915269852,-0.007632993161678314,0.030609339475631714,0.0005160197615623474,-0.053660519421100616,0.04753188043832779,-0.05434219911694527,-0.04459628462791443,-0.04683443903923035,0.03524892032146454,0.06311316788196564,-0.05302722007036209,-0.06338506191968918,-0.036213990300893784,-0.02624575048685074,0.06554265320301056,-0.035137541592121124,-0.011430058628320694,-0.0524158775806427,0.03607907146215439,0.028812460601329803,-0.004267372190952301,0.034783534705638885,-0.03495212644338608,-0.004494339227676392,0.050915032625198364,0.022634319961071014,-0.06860090047121048,-0.003039523959159851,-0.06525056064128876,0.0026165246963500977,0.04509764164686203,0.002156682312488556,-0.05733302980661392,0.06852538883686066,-0.005274288356304169,-0.012198306620121002,0.04112543165683746,-0.030327413231134415,-0.019976329058408737,0.020523816347122192,-0.004660554230213165,0.0385860949754715,-0.055249959230422974,0.06716686487197876,0.05054847151041031,-0.04461536556482315,0.004853680729866028,0.03589654713869095,0.0030763819813728333,-0.0027221664786338806,-0.05676525458693504,-0.050595372915267944,0.06469853222370148,0.013904884457588196,-0.020354852080345154,0.0643196552991867,-0.004400201141834259,0.06940323114395142,-0.027365919202566147,0.008836023509502411,-0.03147898241877556,-0.0005619600415229797,-0.04684056341648102,0.04232136160135269,-0.055501773953437805,-0.014348175376653671,0.04208119213581085,-0.036148641258478165,-0.06280164420604706,0.04745851457118988,0.011225834488868713,-0.0005402117967605591,0.018303729593753815,-0.039433836936950684,0.06557220220565796,0.0003910660743713379,0.025064826011657715,0.05539141595363617,0.05095584690570831,0.04569675028324127,-0.04191363602876663,-0.029614020138978958,0.04607408493757248,0.007304728031158447,0.03595057874917984,-0.05038607493042946,0.05558916926383972,-0.03205014765262604,0.007719948887825012,-0.05540350824594498,0.059350207448005676,0.03706450015306473,-0.0303335040807724,-0.04236912354826927,-0.013739828020334244,0.0019576922059059143,0.027812905609607697,0.010818220674991608,-0.039135150611400604,0.01034635305404663,0.008430056273937225,-0.057212017476558685,-0.07057244330644608,0.004927478730678558,0.03676222264766693,0.007938675582408905,0.009477689862251282,-0.06520739197731018,0.0017119795083999634,-0.013619400560855865,0.021791569888591766,-0.019297640770673752,-0.005167469382286072,-0.01247386634349823,-0.016320422291755676,0.06769409775733948,0.031165137887001038,-0.0188012532889843,-0.06186876818537712,0.007230639457702637,-0.05469811335206032,0.011573664844036102,0.031186148524284363,0.041612833738327026,-0.03201812878251076,-0.03490733727812767,-0.012146789580583572,-0.027061469852924347,-0.021787095814943314,-0.002384789288043976,-0.030242428183555603,-0.01932869851589203,-0.0248764306306839,-0.061797432601451874,-0.0684523954987526,-0.05322049930691719,0.05817390978336334,0.024788744747638702,0.010473333299160004,-0.009036995470523834,-0.019306417554616928,-0.0584731251001358,-0.030112039297819138,-0.0059124380350112915,-0.025461312383413315,-0.06471993774175644,0.003191441297531128,0.012871332466602325,0.05677753686904907,-0.022134974598884583,0.0006219446659088135,-0.020404528826475143,0.06628270447254181,-0.036802515387535095,-0.02002192661166191,0.031149275600910187,-0.02757905423641205,0.04938261955976486,-0.06323572993278503,-0.006454460322856903,-0.02341841533780098,-0.05751796439290047,-0.06694821268320084,0.06995730102062225,0.05687209963798523,0.07149097323417664,-0.0017197057604789734,-0.03496361896395683,-0.02546793594956398,0.002632938325405121,0.003130011260509491,-0.028038758784532547,-0.01241736114025116,-0.051014311611652374,0.047175899147987366,-0.0691564753651619,0.06407660245895386,0.042145341634750366,-0.05127833038568497,0.06964944303035736,0.06988798081874847,-0.06598496437072754,0.03141036629676819,-0.01454995572566986,-0.06542301923036575,0.04040355235338211,0.05958878993988037,0.07011298835277557,0.03538285195827484,0.02083338052034378,0.03552265465259552,-0.06925775855779648,0.008206188678741455,-0.043208278715610504,-0.03472842648625374,0.03981549292802811,-0.04202848672866821,0.01435849815607071,0.06296956539154053,-0.05874421074986458,-0.05126595497131348,-0.06439363211393356,-0.05725351721048355,0.011436015367507935,-0.03094104304909706,-0.03593997657299042,0.01023535430431366,0.06344015896320343,-0.033395860344171524,-0.010055474936962128,0.06972037255764008,-0.05811328813433647,-0.013364728540182114,0.044197164475917816,0.014003753662109375,0.05166324973106384,0.01506301760673523,0.01831381767988205,-0.03969590738415718,0.054355502128601074,-0.017537396401166916,-0.017653021961450577,0.021904096007347107,0.024440504610538483,0.06534865498542786,0.07131654024124146,-0.022614754736423492,0.0024042800068855286,0.032319582998752594,-0.03478993847966194,0.042018868029117584,0.061495065689086914,-0.044850438833236694,-0.0529574453830719,-0.05359852313995361,0.012401357293128967,-0.008138924837112427,0.04253903776407242,0.06813880801200867,-0.02574724704027176,0.03364032506942749,-0.024686526507139206,0.01694176346063614,
